steady state	autograd
-0.0015969675732776523	-0.0015969675576092235
6.879232387291268e-05	6.879232637014742e-05
-0.00019650891772471368	-0.00019650891287993996
-1.6321146176778711e-06	-1.6321146675826775e-06
0.00014062170521356165	0.00014062171103582623
-0.001088602701202035	-0.0010886027026507834
8.453047485090792e-06	8.453047728325493e-06
0.00018851830100174993	0.00018851830042460217
0.0001520915247965604	0.0001520915261245809
-0.0019915630109608173	-0.001991562993263346
-3.3957337564061163e-06	-3.3957338647200906e-06
-0.0017694637645035982	-0.0017694637176277712
2.5927707611117512e-05	2.5927708095954014e-05
-0.0019596831407397985	-0.0019596832131711047
6.345941801555455e-05	6.345941562098201e-05
3.0362554753082804e-05	3.0362555160636373e-05
-0.0014813680900260806	-0.0014813681273385024
2.23442862079537e-06	2.234428544276806e-06
-0.0014375969767570496	-0.0014375969616647322
-0.0011868581641465425	-0.0011868581208295853
0.00016023661009967327	0.0001602366115559041
3.4352760849287733e-05	3.435275946632236e-05
5.502949352376163e-05	5.502949234779569e-05
-0.001916225766763091	-0.0019162258142987117
-5.30995066583273e-06	-5.309950585471289e-06
0.0001412449637427926	0.00014124496099580087
-0.0016505515668541193	-0.001650551618250561
-0.0003842755395453423	-0.00038427554263438654
-0.0006667308625765145	-0.00066673084550899
-0.0012505422346293926	-0.0012505422013277113
-0.0012371737975627184	-0.0012371738546502115
0.00011247996735619381	0.0001124799669407636
2.7949741706834175e-05	2.794974238751135e-05
-1.053195956046693e-05	-1.0531959478223628e-05
-0.0016757843550294638	-0.001675784325899189
-0.0018371627666056156	-0.001837162775614055
-0.00021055596880614758	-0.00021055596806715516
1.0583011089693173e-06	1.058301142703746e-06
-0.0012188509572297335	-0.0012188509998522815
-0.0018797608790919185	-0.001879760899009241
-1.3365148333832622e-05	-1.3365148640154431e-05
-0.0019679248798638582	-0.001967924811846685
0.000124645113828592	0.00012464511548338303
-0.0014219807926565409	-0.0014219808219892555
9.793613571673632e-05	9.793613677495485e-05
3.77354517695494e-05	3.7735452990593045e-05
4.0999711927725e-05	4.099971073247962e-05
9.04059925233014e-06	9.040599353820705e-06
0.0001676746760495007	0.00016767467829795427
0.00022872514091432095	0.00022872514200867862
2.212973231507931e-05	2.2129732209294997e-05
-4.3234216718701646e-05	-4.3234216388563216e-05
0.00012150225666118786	0.00012150225874154649
6.235206819837913e-05	6.235206933253959e-05
-0.00015891964721959084	-0.00015891964659408303
8.507239544996992e-05	8.507239731396682e-05
7.789357914589345e-05	7.78935812398612e-05
-0.00026683168835006654	-0.0002668316834842637
0.00027543408214114606	0.000275434080126033
-2.7327212592354044e-05	-2.7327211854663662e-05
-8.62791421241127e-05	-8.627914518992755e-05
-0.0002524498850107193	-0.00025244989267744436
-0.0001115176419261843	-0.0001115176392776038
-0.0002433999761706218	-0.00024339997269166763
5.572122518060496e-06	5.572122656806345e-06
1.2663513189181685e-05	1.2663512893916773e-05
0.00027774000773206353	0.0002777400171152179
-0.00014351798745337874	-0.0001435179820391064
0.00015014068048913032	0.00015014067427728531
0.0001039999260683544	0.00010399992363404485
6.863462476758286e-05	6.863462532463984e-05
0.00020985088485758752	0.0002098508908320377
1.8666358300833963e-05	1.8666358041858945e-05
-0.00021293319878168404	-0.0002129332001207918
0.00012986215006094426	0.00012986214886100987
0.0002155634865630418	0.00021556348180200755
0.0001578677329234779	0.00015786773207753858
-7.305657345568761e-05	-7.305657302263421e-05
6.7046785261482e-06	6.704678334008098e-06
-5.509219045052305e-05	-5.5092189444007967e-05
0.00024934939574450254	0.0002493493861195353
0.00013426529767457396	0.00013426529421804433
0.00021233804000075907	0.00021233803698316562
-5.642171163344756e-05	-5.642171235389936e-05
0.00024182844208553433	0.0002418284407796092
4.749282197735738e-06	4.749282024484795e-06
-6.252620369195938e-05	-6.252620040268256e-05
-2.1587755327345803e-05	-2.1587756008793574e-05
0.00012747805158142	0.000127478058112687
3.294385896879248e-05	3.294385756173034e-05
6.57026466797106e-05	6.570265015897568e-05
0.00014304356591310352	0.00014304356033695612
0.00014128550537861884	0.00014128551251230945
-9.09217560547404e-05	-9.092175639308294e-05
-1.2283287276204646e-07	-1.2283287308676004e-07
0.00010345849295845255	0.00010345849115923721
-0.00018093417747877538	-0.00018093418282328787
0.00012267874262761325	0.0001226787400786907
-0.0001609430619282648	-0.00016094305652090193
0.0001431240962119773	0.00014312409257327522
-0.0015126627404242754	-0.0015126627221949975
0.002758032875135541	0.002758032839188876
-0.0013864171924069524	-0.001386417218733982
-0.002754424000158906	-0.0027544240484695345
-0.003157632425427437	-0.0031576323589586406
3.7666621210519224e-05	3.766661948832077e-05
-0.0011632423847913742	-0.0011632423299802362
-0.0035075710620731115	-0.00350757109280178
5.3473442676477134e-05	5.347344156682742e-05
-0.0010743805905804038	-0.001074380632160866
0.0015199754852801561	0.0015199754832467473
-0.005193485878407955	-0.005193485909433596
2.548332849983126e-05	2.548332849335611e-05
-0.0016502838116139174	-0.0016502838449863227
-0.0005464826244860888	-0.0005464826454112125
-0.00041209295159205794	-0.00041209295131982383
-0.0016155840130522847	-0.0016155839889877078
0.00011643940524663776	0.00011643940559421428
-0.0021754263434559107	-0.0021754262445770776
-0.0027886037714779377	-0.002788603869089987
0.0008145663305185735	0.0008145663043989734
-0.0035945491399616003	-0.0035945490602612503
0.002897518454119563	0.0028975184301188216
-0.003339974908158183	-0.0033399749739710634
0.0012057475978508592	0.0012057475849090015
-0.0009436729014851153	-0.0009436729172562703
-0.005752432160079479	-0.005752432333554495
-0.002093646675348282	-0.0020936466248972865
0.002313308184966445	0.0023133082502182997
-0.000987537088803947	-0.0009875371129622783
0.0007147254655137658	0.000714725451061901
0.0002651176182553172	0.0002651176299239891
-0.0026038673240691423	-0.0026038673205180884
0.0007537722704000771	0.0007537722559997624
-2.28665358008584e-05	-2.2866535493917967e-05
-0.003555480157956481	-0.0035554801089803024
6.785773166484432e-06	6.78577335768282e-06
-1.422082004864933e-05	-1.422081966316043e-05
-0.0015982204349711537	-0.0015982203921159584
-0.0032318655867129564	-0.003231865535551997
-0.005544957704842091	-0.005544957766462975
-0.001447385409846902	-0.001447385354692431
-0.0008277930319309235	-0.0008277930109834004
0.000498046400025487	0.0004980463866484304
-0.0034893827978521585	-0.003489382900296809
0.0013893941650167108	0.001389394172647969
-0.001891635125502944	-0.0018916350685561057
0.0026074100751429796	0.002607410025553404
0.0005791733274236321	0.0005791733411386327
-0.0050927200354635715	-0.005092720081368633
-0.0018920886795967817	-0.0018920886753712627
0.0014304773649200797	0.0014304774216028005
-7.963758253026754e-05	-7.963758210921014e-05
0.0029232276137918234	0.002923227651669857
-0.0001301760639762506	-0.0001301760585823879
0.00015626537788193673	0.00015626538392905158
-7.333129360631574e-06	-7.333129224533289e-06
0.004126616287976503	0.004126616159132716
0.0049242544919252396	0.004924254537671093
0.003946139942854643	0.003946139806141101
0.002226711018010974	0.002226710964049754
0.0034850325901061296	0.0034850325616585538
0.002619153121486306	0.002619153129577528
0.009222758002579212	0.009222757812494667
0.0048408228904008865	0.004840822870693874
0.006890038959681988	0.006890038907274625
0.00546093238517642	0.005460932245750338
-8.907315350370482e-05	-8.907315110078886e-05
2.410453998891171e-05	2.4104539706694478e-05
0.0038792963605374098	0.003879296339839818
0.004437456838786602	0.00443745663310353
0.003996548242866993	0.003996548086135492
0.005979704670608044	0.005979704602713703
5.7538371038390324e-05	5.753836964360092e-05
0.005831894930452108	0.005831894770384617
0.008351852186024189	0.008351852183373861
0.008785185404121876	0.008785185065858769
0.00534088583663106	0.00534088594805137
0.001760338433086872	0.0017603384868256106
-0.00010048186231870204	-0.00010048186004029712
0.0021543996408581734	0.0021543996228468496
0.003250326495617628	0.0032503264263190057
0.004815569147467613	0.004815569266656999
-5.5703396355966106e-05	-5.570339604210967e-05
0.006411871872842312	0.006411872073971578
0.005425830837339163	0.005425831036985087
-9.1297879407648e-05	-9.129787643106404e-05
0.0027526707854121923	0.0027526707499408542
-0.0001882119831861928	-0.00018821197947424127
0.0025516452733427286	0.0025516453639029095
0.004169962368905544	0.004169962413715561
0.0035989645402878523	0.0035989644569799474
0.00838632695376873	0.008386327033524871
0.0038562749978154898	0.003856275077393681
0.0060822623781859875	0.0060822621537216645
9.178223263006657e-05	9.178223160301029e-05
0.0050363303162157536	0.00503633049594163
0.003825765335932374	0.003825765269232798
-7.69619582570158e-05	-7.696195812652331e-05
0.0038747380021959543	0.0038747379601105705
-0.0026198585983365774	-0.0026198585668528326
-0.0014032735489308834	-0.001403273505243515
-0.0031063901260495186	-0.0031063901656468687
0.00045947046601213515	0.0004594704803204421
1.97698191186646e-05	1.9769818624601903e-05
0.0004360300372354686	0.00043603003244158437
0.0004698634729720652	0.0004698634810201609
-2.278564716107212e-05	-2.2785646487720172e-05
-0.0024452111683785915	-0.0024452111831115395
-8.471844012092333e-06	-8.471843912044215e-06
0.0002064054278889671	0.00020640542837412575
0.0005510730552487075	0.0005510730602025861
-0.00047673500375822186	-0.0004767349905251276
-0.0035400388296693563	-0.0035400387281476885
0.00028993436717428267	0.0002899343627056503
0.0004997817450203001	0.0004997817695412194
0.0003112020785920322	0.0003112020918273696
0.0005065759760327637	0.0005065760019795227
-0.0013210513861849904	-0.0013210514294612458
-1.4774525880056899e-05	-1.4774525922192726e-05
5.30346660525538e-05	5.303466738939623e-05
-0.0010339317377656698	-0.0010339317192709291
-0.0033071786165237427	-0.003307178515646594
5.855992276337929e-05	5.855992134900757e-05
1.6320302165695466e-05	1.632030127254964e-05
-0.0015950642991811037	-0.0015950643095431086
-0.0028525465168058872	-0.0028525464892520205
-0.003272402100265026	-0.0032724022114683214
-0.001454887562431395	-0.0014548875677105424
5.529917416424723e-06	5.529917606746361e-06
0.00032885922701098025	0.0003288592348306092
4.194505527266301e-05	4.1945055826704925e-05
0.00042044490692205727	0.0004204449082841789
-0.0025200287345796824	-0.0025200286444577117
0.000490587146487087	0.0004905871483165057
0.0005199837614782155	0.0005199837420587333
6.158628366392804e-06	6.15862826910506e-06
-1.838552634580992e-05	-1.838552566412005e-05
5.360043724067509e-05	5.3600438695396465e-05
2.8602476049854886e-06	2.8602476442876115e-06
-0.002808007877320051	-0.0028080079628958607
-0.0024559074081480503	-0.00245590731828877
-0.0026060037780553102	-0.0026060037458459
-0.0032012825831770897	-0.0032012825897102686
-1.2559677088574972e-05	-1.2559676821771333e-05
-0.0016709172632545233	-0.0016709172923341966
-9.651891559769865e-06	-9.65189129066386e-06
-0.0006826139288023114	-0.0006826139262666854
-6.353683420456946e-05	-6.353683573418088e-05
-0.00011895252100657672	-0.00011895251921299765
-0.00034950918052345514	-0.0003495091745494264
2.001474604185205e-05	2.001474517848773e-05
-0.000145645797601901	-0.00014564580044383845
-0.00010940770152956247	-0.00010940769967467294
-0.0007394292624667287	-0.0007394292531633808
-0.0003940419992431998	-0.0003940419898729519
4.066835572302807e-06	4.066835604531229e-06
-0.00024720534565858543	-0.0002472053502508009
-1.0976663361361716e-05	-1.0976663241451924e-05
-0.00034767057513818145	-0.0003476705871479764
-2.2261030608206056e-05	-2.226103016633439e-05
-2.0000139556941576e-05	-2.0000139667745097e-05
5.001240424462594e-05	5.0012403238773455e-05
-0.0006185606471262872	-0.0006185606400171422
-0.0003181463398505002	-0.00031814634660575684
-4.979276127414778e-06	-4.979275985446112e-06
-0.0002461725671309978	-0.0002461725607555779
-1.7184136595460586e-05	-1.7184137396759497e-05
-0.00041761063039302826	-0.0004176106340602607
-3.1392053642775863e-05	-3.1392054963585976e-05
-1.4923090930096805e-05	-1.4923091226328596e-05
-0.0002477819216437638	-0.00024778192844027136
-0.0007086461409926414	-0.0007086461247634353
-0.0006683799438178539	-0.0006683799426290666
-0.0004435252631083131	-0.00044352527277211745
-0.00027082808082923293	-0.0002708280721511015
-0.0002995185204781592	-0.0002995185198109905
8.033407539187465e-06	8.033407206056866e-06
-0.0003894514811690897	-0.0003894514899554485
-0.00024672452127560973	-0.0002467245352228826
-0.0004447311512194574	-0.000444731140402749
-0.0003988922107964754	-0.0003988922231431631
1.0251505955238827e-05	1.0251505761771763e-05
-0.0010266504250466824	-0.0010266503720957909
-0.0004440153716132045	-0.0004440153773245347
-0.00035457193735055625	-0.00035457192926189305
-0.0004146366845816374	-0.00041463667444496935
-0.0010945509420707822	-0.001094550972619619
-0.0009327877196483314	-0.00093278769413299
-0.0009283687104471028	-0.000928368737794672
8.748956133786123e-06	8.748956010177133e-06
1.1113657819805667e-05	1.1113658028482574e-05
-0.00038199423579499125	-0.0003819942417002465
-0.00021360853861551732	-0.00021360854328117816
-0.0008511982741765678	-0.0008511982582915806
-1.0459626537340228e-05	-1.0459626245987323e-05
-0.0007170698372647166	-0.0007170698280986882
-0.00039749685674905777	-0.0003974968673786063
-2.3679893274675123e-05	-2.3679892636969513e-05
-2.3459837393602356e-05	-2.345983663000175e-05
-2.158237748517422e-06	-2.1582378617929016e-06
-2.2255202566157095e-05	-2.225520277697343e-05
0.00017603552259970456	0.00017603552464131732
3.860578726744279e-05	3.860578624140484e-05
-1.2893224266008474e-05	-1.289322428880496e-05
3.5892830965167377e-06	3.5892830371529605e-06
1.5296527635655366e-06	1.529652789781454e-06
5.099710733702523e-07	5.099710881708475e-07
0.0004922893131151795	0.0004922892857444941
0.0005690141697414219	0.0005690141498270234
0.00040808430640026927	0.00040808431725259504
-1.8805901618179632e-06	-1.8805901754102529e-06
1.2984049135411624e-05	1.2984049222169387e-05
0.0004990150919184089	0.0004990150756688951
-6.501901680167066e-06	-6.501901722100836e-06
0.00045767080155201256	0.0004576708039012759
0.00012776067887898535	0.00012776067534859325
9.800546104088426e-05	9.800546041350536e-05
9.760113243828528e-06	9.760113122234104e-06
1.4153348274703603e-05	1.4153348055232088e-05
1.423275261913659e-05	1.4232752511542296e-05
0.0003485317574813962	0.000348531752192063
0.0006037846906110644	0.0006037846910108763
0.000286133581539616	0.0002861335860915901
1.2908792086818721e-05	1.2908792058233478e-05
0.00046295084757730365	0.000462950851486062
0.00048016218352131546	0.00048016218026065315
0.00010884988296311349	0.00010884988194878427
1.438845993106952e-05	1.4388459976169707e-05
0.000584007881116122	0.0005840078935007431
0.00029257460846565664	0.00029257461762824497
0.00010335405386285856	0.00010335405361990176
0.00036103659658692777	0.0003610365939160444
-3.7778577279823367e-06	-3.7778576309887484e-06
8.626102498965338e-05	8.626102162762538e-05
8.7613174400758e-05	8.761317229064698e-05
0.0002377238415647298	0.00023772384040938413
4.608704330166802e-05	4.6087043144089885e-05
0.00044554637861438096	0.0004455463766812669
5.070918177807471e-06	5.07091801539457e-06
0.0005809745634905994	0.000580974536285767
0.00010720881255110726	0.00010720881217663567
0.00038514769403263927	0.00038514770708592325
-7.315687525988324e-06	-7.315687605617037e-06
-6.925235084054293e-06	-6.925235099848299e-06
0.0005068054888397455	0.0005068055087049608
9.584632061887532e-05	9.58463233199637e-05
0.0002620574086904526	0.00026205740687634306
8.004331903066486e-05	8.004332029588982e-05
0.00033363382681272924	0.0003336338304256283
-2.538831722631585e-05	-2.5388317015382178e-05
2.4157261577784084e-05	2.4157261584880773e-05
9.482850873610005e-05	9.482851168780813e-05
0.000470057682832703	0.00047005769434740896
2.9808501494699158e-05	2.9808502397823355e-05
0.0004454125592019409	0.0004454125509573605
7.505310804845067e-06	7.505310679237048e-06
1.7420064978068694e-05	1.7420065352965555e-05
1.3529511306842323e-05	1.3529511613270366e-05
-1.988456460821908e-05	-1.9884564118931487e-05
-1.8942682800116017e-05	-1.8942683362188487e-05
-1.772387622622773e-05	-1.7723875401572733e-05
-1.0333579666621517e-05	-1.0333579239300636e-05
-5.377498746383935e-05	-5.3774987797748556e-05
-1.0802857104863506e-05	-1.0802857488684858e-05
1.74812157638371e-05	1.748121599443175e-05
-3.2588537578703836e-05	-3.258853796018463e-05
-1.3482586837199051e-05	-1.3482587169412962e-05
-5.968026925984304e-06	-5.96802679236515e-06
1.3164714800950605e-05	1.316471499577471e-05
-6.947685960767558e-06	-6.94768600179246e-06
7.701778486080002e-07	7.701778597976446e-07
2.248112105007749e-05	2.2481121714979902e-05
6.605186172237154e-06	6.605186017873946e-06
-3.735030259122141e-05	-3.735030296652979e-05
1.3639873031934258e-05	1.3639873406245202e-05
-2.062511157419067e-05	-2.062511216518471e-05
1.5324070773203857e-05	1.5324069898206168e-05
7.521608495153487e-06	7.521608305689597e-06
-1.899395283544436e-05	-1.8993952151877375e-05
-3.186723915860057e-05	-3.1867238895865063e-05
-3.0284559215942863e-06	-3.028455859492329e-06
1.0434567229822278e-05	1.0434567011087675e-05
9.310864697908983e-06	9.31086428268063e-06
-1.3296352335601114e-05	-1.3296352455965973e-05
-1.2753695045830682e-05	-1.275369475483726e-05
-2.0717297957162373e-06	-2.071729760103897e-06
-2.847686300810892e-05	-2.8476863684138405e-05
3.700040167586849e-07	3.700040227277887e-07
4.998833901481703e-06	4.998833914280666e-06
9.824281733017415e-06	9.824282085459877e-06
-2.2571162844542414e-05	-2.257116289022567e-05
-2.5160479708574712e-06	-2.5160478702710094e-06
-2.3827462428016588e-05	-2.3827462409445082e-05
-5.3342846513260156e-05	-5.334284755849004e-05
-2.491337227183976e-06	-2.491337258899035e-06
3.0225764930946752e-06	3.0225763864099074e-06
1.2275688732188428e-06	1.2275688351877066e-06
2.0556317394948564e-05	2.055631711839379e-05
-1.8694134269026108e-05	-1.8694133496243893e-05
-3.8140547985676676e-05	-3.814054812398351e-05
-4.083319072378799e-05	-4.083319246823002e-05
-2.7136817152495496e-05	-2.7136817252256604e-05
-1.5829800759092905e-05	-1.582980040627736e-05
-2.996761759277433e-05	-2.996761766345531e-05
-2.5679713871795684e-05	-2.567971374096116e-05
-4.579922460834496e-05	-4.5799226123473895e-05
-2.5198438379447907e-05	-2.5198439177720722e-05
0.0031332040671259165	0.0031332041246878105
0.0012618594337254763	0.0012618594640714227
-0.0051163434982299805	-0.005116343347293663
-0.004381317179650068	-0.004381317323809812
-0.00020160611893516034	-0.00020160611280238178
0.002480258932337165	0.0024802590074991014
0.0013630009489133954	0.001363000970118286
-0.004397969227284193	-0.004397969105572622
0.001379585126414895	0.0013795851750407727
0.0010436138836666942	0.001043613912936005
0.00016806746134534478	0.00016806745490352207
0.0014009575825184584	0.0014009575279127528
-0.003522545099258423	-0.0035225451399548717
0.0003976274165324867	0.0003976274072653448
0.0010324015747755766	0.0010324016175587106
-0.0003633433661889285	-0.0003633433687069343
0.00010452072456246242	0.00010452072602511695
-0.0051037222146987915	-0.005103722128877862
0.0002614641562104225	0.0002614641632035056
0.001357445609755814	0.0013574455525429785
0.002989416476339102	0.0029894165539342456
-0.0030495598912239075	-0.0030495598194065013
1.2804202015104238e-05	1.280420204053519e-05
0.002341344952583313	0.002341344920609193
-0.002944756066426635	-0.0029447560738777544
-0.003354782471433282	-0.0033547824145715556
1.533245995233301e-05	1.5332459229651222e-05
0.0032049722503870726	0.0032049723507801635
0.0012428938644006848	0.0012428938897792953
0.0002308875264134258	0.0002308875198613051
-2.680908437469043e-05	-2.680908381899306e-05
-0.0009892260422930121	-0.0009892259915152504
-0.006131669040769339	-0.006131668871772336
-9.524243068881333e-05	-9.52424318930932e-05
5.9831894759554416e-05	5.983189349032138e-05
-0.0033984340261667967	-0.0033984339258704027
0.003348760539665818	0.0033487606158961298
0.0012466722400858998	0.001246672234086773
-0.005628861486911774	-0.005628861467336677
0.0009667585254646838	0.0009667585101224927
-0.005252006929367781	-0.00525200679564728
-5.577069168793969e-05	-5.577069061871676e-05
0.00026845670072361827	0.00026845669905956683
-0.002469234401360154	-0.002469234438537502
0.0023662035819143057	0.0023662035011409277
-0.00391899049282074	-0.003918990410545451
0.00397025141865015	0.003970251194533665
-0.0027865071315318346	-0.00278650718876202
0.000977598363533616	0.0009775983367408367
-0.006304098758846521	-0.006304098773054985
0.0016403711633756757	0.0016403712203693717
0.0012330194003880024	0.0012330193943344116
-0.00424273731186986	-0.004242737418275615
0.00017210410442203283	0.00017210410585804752
0.0014738593017682433	0.0014738593553339902
-3.187554466421716e-05	-3.187554597554992e-05
0.00010964832472382113	0.00010964832324251247
0.00017745829245541245	0.00017745828780927847
-7.781024760333821e-05	-7.781024442850404e-05
-2.3084350686986e-05	-2.3084350370875435e-05
0.00018965272465720773	0.0001896527303323766
0.000849853444378823	0.0008498534587703358
0.00026564905419945717	0.000265649068555194
-2.1026073227403685e-05	-2.10260733251709e-05
0.0011075794463977218	0.0011075794787776718
-4.2800744267879054e-05	-4.280074452496522e-05
-2.7113317628391087e-05	-2.7113318441951003e-05
0.0003743512206710875	0.00037435123235146845
0.0005670280079357326	0.0005670279866713445
0.0014956834493204951	0.0014956834900481766
0.0005187721108086407	0.0005187721229891381
0.0005032451590523124	0.0005032451624731901
0.00031967341783456504	0.0003196734299349295
-6.742615369148552e-05	-6.74261556587149e-05
0.0014422250678762794	0.0014422250103896148
0.00038835202576592565	0.00038835201396182536
0.0005973262595944107	0.0005973262789440205
0.0007095533655956388	0.0007095533789996695
0.0010101856896653771	0.0010101856411638879
0.000411233922932297	0.00041123390883647873
0.0005526827881112695	0.0005526827695153488
-1.3927950931247324e-05	-1.3927950988078056e-05
0.0002772498410195112	0.00027724983857017877
0.0009542288025841117	0.0009542287773729959
0.0010660543339326978	0.0010660543016462215
1.4809789945502416e-06	1.4809790349241473e-06
-3.718860898516141e-05	-3.7188609011253825e-05
0.0006663976237177849	0.0006663975997514952
0.00011112840729765594	0.00011112840809151502
1.0661929991329089e-05	1.0661930116084772e-05
0.0003584842197597027	0.0003584842100924038
0.0011363436933606863	0.0011363437305190887
0.0005354192689992487	0.0005354192830907624
0.0009223701199516654	0.0009223701146875814
0.0015319399535655975	0.001531939987576937
-3.1347219191957265e-05	-3.134722041532128e-05
0.00045327882980927825	0.00045327883768954706
-3.7040681490907446e-06	-3.704068108741997e-06
4.2723411752376705e-05	4.272341223693174e-05
0.0011168933706358075	0.001116893316164329
0.0005314319278113544	0.0005314319504346233
0.0006072723190300167	0.000607272316720931
0.0006094567361287773	0.0006094567344954981
4.068446287419647e-05	4.068446419171921e-05
0.0015210671117529273	0.0015210671256284613
0.0010848876554518938	0.0010848876371752703
0.0004887613467872143	0.0004887613465037682
0.0010159180965274572	0.0010159180624389446
-5.520399099623319e-06	-5.5203990046441125e-06
-5.829524161526933e-05	-5.82952412630287e-05
-1.1762605026888195e-05	-1.1762605401295281e-05
-5.569745189859532e-05	-5.5697452568544894e-05
9.033025776261638e-07	9.033025681503727e-07
-1.8653479401109507e-06	-1.8653479892760284e-06
-5.314204463502392e-05	-5.3142043765333826e-05
3.215052493032999e-05	3.2150525733749865e-05
-8.302707283291966e-05	-8.302707270817163e-05
1.7437831047573127e-05	1.743783119338113e-05
-6.305468559730798e-05	-6.305468440141012e-05
1.4705024113936815e-05	1.4705024495805514e-05
-1.4097704479354434e-05	-1.409770453759646e-05
-9.304312129643222e-07	-9.304312393613983e-07
3.268966611358337e-05	3.268966647765081e-05
-6.020440923748538e-05	-6.020440804929254e-05
-5.1731825806200504e-05	-5.1731824348848795e-05
-1.453960248909425e-05	-1.4539602593087122e-05
-1.751321178744547e-05	-1.7513211573007323e-05
-3.293038025731221e-05	-3.293038201044488e-05
-7.19198869774118e-05	-7.191988842051874e-05
-9.322685400547925e-06	-9.32268502704451e-06
-7.112161256372929e-06	-7.112161448191637e-06
3.905880294041708e-05	3.9058802810541296e-05
-5.0783717597369105e-05	-5.0783716789768685e-05
-7.339999137911946e-05	-7.339999485811782e-05
-7.572122740384657e-06	-7.572122723276786e-06
3.2886770640061513e-08	3.288677044533769e-08
-6.36195472907275e-05	-6.361954837730146e-05
-8.225830970332026e-05	-8.225831333782237e-05
5.0927785196108744e-05	5.0927786500403246e-05
-4.847574746236205e-05	-4.847574916073688e-05
2.702861456782557e-05	2.7028614640925842e-05
2.8465783543651924e-05	2.8465784244706213e-05
-6.490895611932501e-05	-6.490895755605376e-05
-3.7304296711226925e-05	-3.730429517151925e-05
-6.406671309377998e-05	-6.406671037543096e-05
8.601571721555956e-07	8.601571671539348e-07
-8.055978355514526e-07	-8.055978166722967e-07
3.5470488910505082e-06	3.547048837009556e-06
-3.3856114896479994e-05	-3.385611381440803e-05
-7.077697955537587e-05	-7.077697596363146e-05
-5.83922810619697e-05	-5.8392281363718205e-05
-8.181348675861955e-06	-8.181348251335365e-06
1.662107024458237e-05	1.6621070006432508e-05
2.6509544113650918e-05	2.6509544409980783e-05
-0.0006889524520374835	-0.0006889524241525796
-0.0029789074324071407	-0.0029789074247767214
-0.0007753780228085816	-0.0007753780212379515
-0.002564431633800268	-0.002564431531962077
5.6619381211930886e-05	5.6619382599152305e-05
-0.0012757177464663982	-0.0012757177580078466
-0.002452969318255782	-0.002452969341195793
-0.0009300122619606555	-0.0009300122431722245
5.128530028741807e-05	5.12853013529478e-05
-0.001159075298346579	-0.001159075270568464
-0.0028358555864542723	-0.0028358556087828817
-0.00012322924158070236	-0.00012322923693962838
-0.00015624640218447894	-0.00015624640350108985
-0.0017292617121711373	-0.0017292616717632357
-0.0028562922962009907	-0.002856292253202432
-0.0015987766673788428	-0.0015987766165169006
2.337960722798016e-05	2.3379607814057292e-05
-0.0007097497582435608	-0.0007097497444159491
3.5520633900887333e-06	3.5520634379180606e-06
-0.002459418959915638	-0.002459419054071133
-0.00081780890468508	-0.0008178088816488353
-0.0030202651396393776	-0.0030202651809359453
4.833065304410411e-06	4.8330654992294805e-06
-0.0033024917356669903	-0.00330249177964606
-0.002446240046992898	-0.0024462400261270932
7.831918628653511e-05	7.83191854716368e-05
3.5154160286765546e-05	3.515416023579241e-05
-0.0012989825336262584	-0.0012989825210312524
-0.0031100825872272253	-0.003110082560848745
-0.0023372566793113947	-0.002337256731956553
-2.5217664187948685e-06	-2.5217663234977386e-06
4.181377880740911e-05	4.181377716231176e-05
-0.0019554931204766035	-0.0019554930843165967
-0.00026425966643728316	-0.00026425967247958225
-0.0007429782999679446	-0.0007429782725458004
-0.0028184857219457626	-0.002818485787852207
-0.0006120283505879343	-0.0006120283445345422
-0.003166784532368183	-0.0031667845051189477
1.4443741747527383e-05	1.4443741500663212e-05
3.862571975332685e-05	3.8625719872636474e-05
1.260018689208664e-05	1.2600186872626832e-05
4.90700731461402e-05	4.9070072825022654e-05
7.504757377319038e-05	7.504757388991248e-05
-0.0005290493136271834	-0.0005290493226660821
-0.0009462454472668469	-0.000946245457329946
-8.603615242464002e-06	-8.603615188080823e-06
-0.003140998538583517	-0.0031409984611613685
-0.0006403164006769657	-0.0006403164219556651
4.608298695529811e-05	4.6082985885245976e-05
-0.0036665156949311495	-0.003666515763863171
2.2605805497732945e-05	2.2605804929739796e-05
-3.6443489079829305e-05	-3.6443490609316766e-05
4.200154580757953e-05	4.200154690450122e-05
9.9953049357282e-06	9.99530470439305e-06
-5.051560236779551e-08	-5.0515601211124917e-08
-8.630616434857075e-07	-8.630616672382657e-07
3.364308213349432e-05	3.36430816292619e-05
6.302820838754997e-05	6.302820740803017e-05
2.8569193091243505e-05	2.856919278629749e-05
3.974480205215514e-05	3.9744800885121335e-05
1.6924834199016914e-05	1.6924834018009612e-05
2.5401403036084957e-05	2.5401402173136336e-05
2.5753246518434025e-05	2.57532461014681e-05
3.083444244111888e-05	3.083444235193085e-05
4.455882663023658e-05	4.455882524947571e-05
3.942754483432509e-05	3.94275460976313e-05
-3.387170727364719e-05	-3.387170840051239e-05
1.5300081940949894e-05	1.5300082358378464e-05
-0.00011079564137617126	-0.00011079564296605807
-2.2729322154191323e-05	-2.27293213088059e-05
8.65401034388924e-06	8.654010541286223e-06
1.605330362508539e-05	1.6053303472775996e-05
5.0861754061770625e-06	5.0861754287362765e-06
1.122590128943557e-05	1.12259013699554e-05
6.226310506463051e-05	6.226310795283474e-05
4.8395682824775577e-05	4.8395683892628793e-05
1.5455521861440502e-05	1.5455521153404574e-05
8.623941880614439e-07	8.623941659037303e-07
1.1685413483064622e-05	1.1685413835201055e-05
-7.118346547940746e-05	-7.118346473243041e-05
3.5159904655301943e-05	3.5159902888290385e-05
-3.495238343020901e-05	-3.495238313254026e-05
6.662401119683636e-06	6.662401269032393e-06
-2.5961771825677715e-05	-2.596177118328243e-05
4.534490290097892e-05	4.5344901659487984e-05
-2.4918723283917643e-05	-2.491872372326189e-05
-8.899211024981923e-06	-8.899211145644862e-06
-7.322838064283133e-05	-7.322838251123292e-05
4.2154279071837664e-05	4.215428000550219e-05
-6.002269947202876e-05	-6.002270052871251e-05
1.345707005384611e-05	1.3457070182042344e-05
-2.867558941943571e-05	-2.867558895984242e-05
-3.7951404010527767e-06	-3.7951404426868656e-06
2.5027884476003237e-05	2.50278842775034e-05
-6.613801087951288e-05	-6.613801096048076e-05
0.0008309638942591846	0.0008309639116067082
0.0002145493490388617	0.00021454934819563261
0.0009776243241503835	0.000977624289726557
0.00012962962500751019	0.00012962962601948728
0.0010097696213051677	0.0010097695707634929
0.0001243988226633519	0.0001243988195963839
0.0005976541433483362	0.0005976541417433376
3.250602094340138e-05	3.250601943930429e-05
0.00011982246360275894	0.00011982246650079059
6.297967956925277e-06	6.297967912484593e-06
6.952889816602692e-05	6.952890150749446e-05
0.0008447087020613253	0.000844708723522343
0.00015085117775015533	0.0001508511754167282
0.0011224433546885848	0.0011224433832357037
0.00010927290713880211	0.00010927290568338623
0.0008683018968440592	0.0008683019057692329
7.188659947132692e-05	7.188660094522027e-05
0.0008435848285444081	0.0008435848276701988
3.702928006532602e-05	3.702927879956166e-05
0.0010684607550501823	0.0010684607159588402
0.0006613009609282017	0.0006613009708688453
-8.02725935500348e-06	-8.027259126923237e-06
4.7909048589644954e-05	4.7909049709918336e-05
0.0009862681617960334	0.0009862682128210535
-2.565063141446444e-06	-2.5650630878032844e-06
0.0001631330669624731	0.00016313306589731157
0.00020004883117508143	0.00020004883386858793
0.00066737225279212	0.0006673722745220794
0.00011535204976098612	0.00011535204739885413
-4.386575255921343e-06	-4.3865754052372405e-06
0.0010625883005559444	0.0010625882686913282
0.00013454236614052206	0.00013454236301845538
0.00020682610920630395	0.00020682611144157462
0.0002038466918747872	0.0002038466882682703
-4.06715525969048e-06	-4.0671552377796345e-06
-7.057209586491808e-06	-7.0572094163084346e-06
6.018523777129303e-07	6.018523809276802e-07
0.00025028883828781545	0.00025028884748715325
8.14946397440508e-05	8.149463670026692e-05
9.37975273700431e-05	9.379753010234174e-05
0.0007828872767277062	0.0007828872791726391
0.0008325913222506642	0.0008325913309618549
0.0009035972179844975	0.0009035971965966897
0.0010086636757478118	0.001008663701341983
0.0008692031842656434	0.0008692031705630013
0.00018506766355130821	0.00018506766080127356
0.00017086545994970948	0.00017086545976130764
-5.234657237451756e-06	-5.234657243041037e-06
0.0001425073714926839	0.00014250737610097705
7.309352076845244e-05	7.309351804557756e-05
0.0001116819039452821	0.0001116819017716245
0.00023039485677145422	0.0002303948606536713
3.413664308027364e-05	3.4136644662361e-05
0.0003467768838163465	0.0003467768942851268
0.00015529214579146355	0.00015529214148798424
0.0001154019555542618	0.00011540195820188199
0.00015318466466851532	0.0001531846669412155
7.095358887454495e-05	7.095358613861625e-05
7.280836598511087e-06	7.2808366127012315e-06
0.00024589998065494	0.0002458999851386065
3.842926162178628e-05	3.8429261134915694e-05
0.00025320189888589084	0.00025320190558043837
8.104895823635161e-05	8.10489616377381e-05
0.000216464904951863	0.00021646490129755003
0.00027265906101092696	0.0002726590519580024
0.00020184300956316292	0.00020184301298835895
0.00017126306192949414	0.0001712630560932401
0.00011410687875468284	0.00011410688006649621
0.00030983539181761444	0.00030983540143056506
1.1412551430112217e-05	1.1412551488131007e-05
-8.723429345991462e-06	-8.723429581523109e-06
6.94407572154887e-05	6.944075567189875e-05
0.00022464926587417722	0.0002246492602914496
-1.500305529589241e-06	-1.500305497538525e-06
-1.4092797755438369e-06	-1.4092797582702432e-06
0.00022980089124757797	0.00022980088752412472
3.896020643878728e-05	3.8960207289863544e-05
0.0003990055702161044	0.00039900557963544936
0.00035970722092315555	0.0003597072254143068
9.884236351354048e-05	9.884236579451741e-05
0.00014498806558549404	0.00014498806343633507
-4.800585429620696e-06	-4.8005855170001644e-06
-1.3777230378764216e-06	-1.3777230750451252e-06
4.706598701886833e-05	4.7065986882089176e-05
0.00015759473899379373	0.0001575947403675292
0.00022847951913718134	0.00022847952046234826
1.369934489048319e-05	1.3699344686264257e-05
0.00025463150814175606	0.0002546314955417225
0.00017250166274607182	0.00017250166510911376
0.0001497583871241659	0.00014975839159461944
5.550049900193699e-05	5.5500500263935034e-05
3.5683468013303354e-05	3.568346972052717e-05
0.00016159277583938092	0.00016159277268795516
0.00012988470552954823	0.00012988471004246648
0.00013076084724161774	0.0001307608455497031
3.401405774638988e-05	3.401405631122865e-05
0.00032659241696819663	0.0003265924049020204
0.0007001633057370782	0.0007001632846452087
-0.00011467869626358151	-0.00011467869847821029
-9.895627044897992e-06	-9.89562749906649e-06
0.00041278076241724193	0.00041278075861412715
0.0004985971609130502	0.0004985971528889835
0.0006187003455124795	0.000618700370776628
0.00047969145816750824	0.0004796914514434489
5.8831086789723486e-05	5.88310860734724e-05
2.1415889932541177e-05	2.1415889638487634e-05
0.0004725694889202714	0.00047256949883221793
0.00015574957069475204	0.00015574957650259507
0.0006601041532121599	0.0006601041493106241
0.00015669621643610299	0.000156696210306619
0.00024677091278135777	0.0002467709233710583
0.00016495215822942555	0.00016495215249883653
6.581928028026596e-05	6.581928103918353e-05
-4.759457442560233e-05	-4.7594574744165365e-05
0.0004282615554984659	0.0004282615657760194
-0.00012032991071464494	-0.00012032991434841062
0.0006655785255134106	0.0006655785455736536
4.9447306082583964e-05	4.944730597076309e-05
0.00029417520272545516	0.00029417521389657524
-7.50899052945897e-05	-7.508990479458783e-05
0.0005312401335686445	0.0005312401544255681
0.0005765832611359656	0.0005765832365647086
3.4080210753018036e-05	3.408020996832455e-05
1.4197154996509198e-05	1.4197154746712645e-05
0.00015223219816107303	0.0001522322038781894
-4.766728579852497e-06	-4.766728462436153e-06
-7.129117875592783e-05	-7.129118129598419e-05
0.00036954961251467466	0.00036954960707391874
-8.443215483566746e-05	-8.443215214692134e-05
-8.43865200295113e-06	-8.438651960527375e-06
0.000606601475737989	0.0006066014839568557
-2.7600462999544106e-06	-2.7600463522557386e-06
0.0005080337869003415	0.0005080337879761099
0.00013946379476692528	0.00013946379894406733
0.0004202350100968033	0.0004202350155067561
0.0005448097363114357	0.000544809736329112
-1.4266962352849077e-05	-1.4266961948462814e-05
-2.5688053938210942e-05	-2.5688053867794288e-05
0.0005325902020558715	0.0005325901738459514
0.00011120971612399444	0.00011120971676942062
8.108508336590603e-05	8.108508358672985e-05
0.00013100636715535074	0.00013100637410054563
-1.4759078112547286e-05	-1.475907828962281e-05
0.0006934987613931298	0.0006934987645967171
0.00015765929128974676	0.00015765929081167413
-5.327387771103531e-05	-5.3273878567528044e-05
0.0006346816080622375	0.0006346815832475388
1.7393669793364097e-07	1.7393669681138216e-07
-0.00013450095138978213	-0.00013450094902765154
-0.0014287446392700076	-0.001428744594556916
-0.003327145939692855	-0.003327145956423965
0.00010378836304880679	0.0001037883653515142
4.1921710362657905e-05	4.1921711040395454e-05
7.953939530125353e-06	7.953939166125438e-06
0.0012058460852131248	0.001205846121927864
6.107695662649348e-05	6.107695486798001e-05
6.291607132880017e-05	6.291606942130804e-05
-0.0023356557358056307	-0.0023356556978990483
-0.0002300208725500852	-0.00023002086639852882
-0.0020800847560167313	-0.0020800848679858766
-0.004423230886459351	-0.004423231070033342
0.0014702343614771962	0.0014702343180865805
-0.0028502570930868387	-0.0028502571500147525
-0.005363184027373791	-0.005363184250510645
0.0004339083970990032	0.0004339084005561734
0.0015144471544772387	0.0015144471387391197
5.8442434237804264e-05	5.844243461277904e-05
7.57657180656679e-05	7.576571843525175e-05
-0.002304889028891921	-0.0023048890940575695
-0.005305940750986338	-0.0053059405276537994
0.0001370804093312472	0.00013708041212723044
0.0015639554476365447	0.0015639554263682973
0.0006958141457289457	0.0006958141579491914
-0.0058498503640294075	-0.005849850234812562
-0.0034053863491863012	-0.003405386284322877
-0.005807038862258196	-0.005807038654358004
3.829931665677577e-05	3.8299317811496345e-05
3.811988062807359e-05	3.8119880490463375e-05
3.624864257290028e-05	3.624864189970671e-05
3.6321802326710895e-05	3.632180282672576e-05
-0.0011431571329012513	-0.0011431571384903202
6.8227095653128345e-06	6.822709407729226e-06
-0.0030000547412782907	-0.003000054758551028
-0.003597297240048647	-0.003597297224352136
-2.1796367946080863e-05	-2.179636740057023e-05
0.00011875464406330138	0.000118754646688264
-0.0053118024952709675	-0.005311802613337077
4.659057958633639e-05	4.6590580844221184e-05
-0.004062107764184475	-0.0040621077090054756
-0.005722224246710539	-0.005722224148421982
-1.0355812264606357e-05	-1.0355812619411375e-05
-0.004648137837648392	-0.004648137649263881
0.000152392138261348	0.00015239214003843612
-0.005447783973067999	-0.005447784175355545
2.2168111968312587e-07	2.2168112437014748e-07
0.0005301827332004905	0.0005301827448405724
-5.455989594338462e-05	-5.455989433635122e-05
5.159343345439993e-05	5.159343263923615e-05
4.9386384489480406e-05	4.938638537090091e-05
5.419469289336121e-06	5.4194694242165774e-06
5.219350350671448e-05	5.2193505055836644e-05
-7.326695049414411e-05	-7.326695290215056e-05
2.9885612093494274e-05	2.9885611442414613e-05
-1.3725536518904846e-05	-1.3725536948444061e-05
-0.00012123766646254808	-0.00012123766691621754
5.961732676951215e-05	5.96173276069093e-05
7.869642286095768e-05	7.869642258428361e-05
-8.49338248372078e-05	-8.493382806568557e-05
-0.00019282149150967598	-0.00019282148809689407
-9.641138603910804e-06	-9.641138914772871e-06
-8.133697519951966e-06	-8.13369791301016e-06
-0.00016864000645000488	-0.00016864000595567813
-0.0003012357628904283	-0.00030123575485860787
-1.5436824469361454e-05	-1.5436824781248252e-05
-1.697363768471405e-05	-1.6973638193168357e-05
-0.00012557518493849784	-0.00012557518199344747
-9.422747098142281e-06	-9.422747154394197e-06
-5.99645463807974e-05	-5.996454736382539e-05
-0.000184969263500534	-0.00018496926805581105
-0.00016842920740600675	-0.00016842921118026655
-7.777821156196296e-05	-7.777821512888218e-05
4.3489249947015196e-05	4.348924969097591e-05
5.5276101193157956e-05	5.527610048928639e-05
-0.00020538122043944895	-0.0002053812218341981
-0.0001847508829087019	-0.00018475088121776596
-6.909637158969417e-05	-6.909637013320602e-05
-8.94565528142266e-05	-8.94565512349743e-05
-3.3474112569820136e-05	-3.347411331556322e-05
-1.4742929124622606e-05	-1.474292955720742e-05
-0.00019338961283210665	-0.00019338961444580508
-6.335468788165599e-05	-6.335468798742563e-05
2.6601222998579033e-05	2.660122389665008e-05
-0.000223880386329256	-0.0002238803854195849
6.197894981596619e-05	6.19789473563149e-05
-0.00011464347335277125	-0.00011464347604804099
-0.00022314759553410113	-0.0002231475940771561
-0.00020558373944368213	-0.00020558373938148224
-0.00010975414625136182	-0.00010975414764038866
-0.00011890094901900738	-0.00011890094848948384
-0.00021075646509416401	-0.00021075646587383665
-6.614241283386946e-05	-6.614241433921497e-05
-8.940454426920041e-05	-8.940454352182145e-05
-0.00011786182585638016	-0.00011786182381980441
4.6806126192677766e-05	4.6806125362919304e-05
-0.0001410123659297824	-0.00014101236740895925
4.154097041464411e-05	4.154097120816096e-05
-0.0002392930764472112	-0.0002392930799285807
8.653227268951014e-06	8.653227489042278e-06
-1.327750305790687e-05	-1.3277502659600851e-05
0.00011893236660398543	0.00011893236525383828
-2.8940419724676758e-05	-2.894041917928917e-05
0.0013903799699619412	0.0013903799308349553
9.990773105528206e-05	9.990773468579188e-05
0.0010507245315238833	0.001050724512908557
0.0007691531209275126	0.0007691531281424099
0.0014260512543842196	0.0014260512999603957
0.0010872463462874293	0.001087246324692969
0.0014965494628995657	0.0014965494177837122
0.0013184323906898499	0.0013184323996198572
-6.897115235915408e-05	-6.897115186415633e-05
-1.9634258933365345e-05	-1.9634258206184138e-05
0.0011345252860337496	0.0011345252537914036
0.001078298082575202	0.001078298026777352
0.0015893492382019758	0.0015893492317795494
3.8987273001112044e-05	3.8987274340411944e-05
1.1686280231515411e-05	1.1686279788856828e-05
8.155817340593785e-05	8.155817514689462e-05
0.0015159603208303452	0.0015159602922049653
0.0011732776183634996	0.0011732775930598212
-1.735796467983164e-05	-1.7357965492364202e-05
3.9654001739108935e-05	3.965400183880854e-05
9.567661618348211e-05	9.567661670462317e-05
5.85972229600884e-05	5.8597222909672825e-05
0.0013084085658192635	0.001308408575959236
4.1046543628908694e-05	4.104654436221643e-05
6.275799387367442e-05	6.275799039058975e-05
-7.488034316338599e-05	-7.48803429326413e-05
-5.579425851465203e-05	-5.579426023202074e-05
9.052197128767148e-05	9.05219745747031e-05
-5.165835773368599e-06	-5.165835775429519e-06
-1.0561460840108339e-05	-1.0561460543163434e-05
-4.619957508111838e-06	-4.619957545350043e-06
-7.019586337264627e-05	-7.019586022749528e-05
0.0010486546671018004	0.0010486547041800097
0.0014974481891840696	0.0014974481862556177
-6.591190322069451e-05	-6.591189983406695e-05
0.00014591519720852375	0.00014591520121774992
0.0014650074299424887	0.0014650074302557314
0.0011619599536061287	0.0011619599878805841
0.0012969889212399721	0.0012969889614518537
7.54267384763807e-05	7.54267370081551e-05
0.00012681324733421206	0.00012681324478698336
-3.423210364417173e-05	-3.423210456050535e-05
-0.00013513713201973587	-0.0001351371247885379
-4.0674269257579e-05	-4.067426884441748e-05
7.124939293134958e-05	7.124939529058472e-05
3.382799150131177e-06	3.382799262131009e-06
-0.00016508789849467576	-0.00016508789820458895
3.549931352608837e-05	3.549931189778501e-05
-2.4857314201653935e-05	-2.4857314795455863e-05
-0.000287991133518517	-0.0002879911427925031
-0.00043150779674761	-0.0004315077830618756
5.4846168495714664e-05	5.484616766871728e-05
-0.00021087097411509603	-0.00021087097491651903
-0.00025944042135961354	-0.0002594404242378089
-0.00044088889262638986	-0.00044088888303787693
-0.0003012569504790008	-0.00030125694418265645
-0.0003839092096313834	-0.0003839092109576481
-0.00035187628236599267	-0.0003518762783082277
-2.0646906705223955e-05	-2.0646906698309893e-05
-3.558062599040568e-05	-3.558062698675661e-05
-3.819374342128867e-06	-3.819374123029757e-06
-0.00037996392347849905	-0.0003799639330092579
4.075669858139008e-05	4.075669860347755e-05
-0.0003835063544102013	-0.0003835063521269857
9.81510675046593e-06	9.815106745781185e-06
3.376754102646373e-05	3.3767539575102186e-05
-2.116827636200469e-05	-2.1168275819460738e-05
-3.693756661959924e-05	-3.693756641110621e-05
-0.00044410431291908026	-0.0004441043099583835
-0.000328009482473135	-0.0003280094886164519
-0.0003667577402666211	-0.0003667577390755143
-0.0004733784298878163	-0.00047337842857071206
-7.832660230633337e-06	-7.832659829347014e-06
2.8283668143558316e-05	2.828366788350588e-05
4.148314837948419e-05	4.148314955913232e-05
-4.1065191908273846e-05	-4.106519335855374e-05
-6.0825561376987025e-05	-6.082556236929728e-05
-1.4185215150064323e-05	-1.4185215118490514e-05
-3.5764125641435385e-05	-3.5764124267865046e-05
-0.0003748562012333423	-0.00037485618758065274
-5.824483014293946e-05	-5.8244830987184046e-05
-0.00011905887367902324	-0.00011905887197891904
-2.1062302039354108e-05	-2.1062301665996608e-05
-0.00035141350235790014	-0.0003514134930990281
-0.00045987917110323906	-0.0004598791741682608
1.948396129591856e-05	1.948396116395231e-05
-4.814530984731391e-05	-4.814530864630306e-05
-0.0003095811407547444	-0.0003095811317852182
1.740594598231837e-05	1.740594644134545e-05
-4.1209710616385564e-05	-4.120971058814952e-05
5.0077258492819965e-05	5.0077257441766034e-05
-0.00031506404047831893	-0.00031506402931920553
-0.0002476208610460162	-0.0002476208608141321
6.414747622329742e-05	6.41474726279667e-05
-0.000532949750777334	-0.0005329497386648342
-0.0004332883399911225	-0.0004332883320775781
-0.0004463319492060691	-0.0004463319613732198
-7.85112424637191e-05	-7.851124482616713e-05
4.450033520697616e-05	4.4500334484559846e-05
-0.0004062487278133631	-0.0004062487183044475
-2.59497592196567e-05	-2.5949759356892824e-05
-6.617933104280382e-05	-6.617932891901033e-05
-0.0010474800365045667	-0.001047480029772404
6.568398384843022e-05	6.56839850051237e-05
-0.0046877688728272915	-0.004687768979431518
0.00015178564353846014	0.0001517856375494343
0.00014241976896300912	0.0001424197749172532
-0.006266249809414148	-0.006266250025151822
-0.004594072699546814	-0.00459407289332643
5.0954313337570056e-05	5.09543134092558e-05
0.0001166820147773251	0.00011668201354900647
-0.008246824145317078	-0.008246824603174711
-0.0025743795558810234	-0.0025743795420366967
-0.0027789464220404625	-0.0027789465106346886
-0.0030444273725152016	-0.0030444272618354285
-0.006431967951357365	-0.006431968182903242
-0.002522219903767109	-0.0025222198494987327
-0.003965820651501417	-0.003965820707005846
-0.00935550220310688	-0.009355502036267938
-0.0023245378397405148	-0.0023245377416836305
-0.0029027131386101246	-0.0029027131228754072
-0.00947959441691637	-0.009479594101159262
-0.0017443349352106452	-0.001744334884274547
9.598558972356841e-05	9.59855889986227e-05
-0.002759668743237853	-0.002759668765487075
-0.004191804677248001	-0.004191804537863706
-0.00795341283082962	-0.007953412731724476
-0.003397840540856123	-0.0033978405393557823
-0.0034719067625701427	-0.003471906798442978
-0.00415691128000617	-0.004156911425455945
8.846041600918397e-05	8.846041871766399e-05
-0.005757274106144905	-0.005757274146401737
-1.4114410078036599e-05	-1.4114410203562487e-05
4.187133890809491e-05	4.187133716622826e-05
-0.0035128495655953884	-0.0035128495134728616
-0.000690975459292531	-0.000690975470199868
4.579541837301804e-06	4.579541983640588e-06
-0.007064885459840298	-0.007064885286845164
-0.005485528148710728	-0.0054855282538567906
-0.005254395306110382	-0.005254395479541385
-0.00942232646048069	-0.00942232650220312
4.051824362250045e-05	4.0518244859028026e-05
5.030757893109694e-05	5.0307578159889015e-05
-0.005368140060454607	-0.0053681398751492
-0.0005476955557242036	-0.0005476955734369642
-0.006711829919368029	-0.006711830080595441
-0.004390972200781107	-0.004390972161220309
-0.004137861542403698	-0.004137861582366646
-0.005868691019713879	-0.0058686909726376624
0.00011281060142209753	0.00011281060013620183
0.0001329159567831084	0.00013291595788487604
-0.005717598367482424	-0.005717598172930961
0.000252661993727088	0.0002526619933662444
1.3833724551659543e-05	1.3833724842605052e-05
0.0002306938695255667	0.00023069386532573646
0.0007989388541318476	0.0007989388409257034
0.00022023788187652826	0.0002202378842561781
0.00020827207481488585	0.00020827206874824333
0.00025921224732883275	0.00025921225170397844
-2.0404846509336494e-05	-2.040484634559508e-05
0.0012966366484761238	0.001296636654524072
0.000647115521132946	0.0006471154974143858
-4.602396074915305e-06	-4.60239589069891e-06
0.0007338986615650356	0.0007338986383166348
0.0008071844931691885	0.0008071844858955276
5.9502322983462363e-05	5.950232213752795e-05
0.0010202322155237198	0.0010202321656282516
-8.326545503223315e-05	-8.3265456717956e-05
0.0013218719977885485	0.0013218719770466028
7.414356514345855e-05	7.414356711249561e-05
0.0008603392634540796	0.0008603392375536438
0.00044660858111456037	0.0004466085679985007
6.796331035729963e-06	6.796331171669967e-06
9.494850132796273e-07	9.494850102705613e-07
0.001010968699119985	0.001010968689924372
0.0010399988386780024	0.001039998870233046
0.0012543617049232125	0.0012543616615224074
0.000854569545481354	0.000854569564199026
0.0010785170597955585	0.0010785171013295044
-1.2804518519260455e-05	-1.2804518193253816e-05
0.00027535829576663673	0.00027535828737056714
0.0011876503704115748	0.0011876503215181029
0.00038864961243234575	0.0003886496173185268
-6.4413388827233575e-06	-6.441339076347251e-06
0.0002669766254257411	0.0002669766369489303
0.00018969751545228064	0.00018969752233482409
0.00027460503042675555	0.0002746050212002344
-2.180576848331839e-05	-2.1805768537138106e-05
0.0011805534595623612	0.0011805534229613938
-4.331488980824361e-06	-4.331488999676703e-06
-8.39197491586674e-06	-8.39197457602509e-06
0.0010020955232903361	0.0010020955091441007
4.142587204114534e-05	4.142587065808658e-05
0.0007648555329069495	0.0007648555485791304
0.0008683954365551472	0.0008683954309631228
0.0010489124106243253	0.0010489124582906905
-6.592155841644853e-05	-6.592155482712499e-05
0.0008112264913506806	0.0008112264925811003
-5.768547271145508e-05	-5.7685472234301706e-05
-3.811970600509085e-05	-3.811970622399452e-05
5.538039476959966e-05	5.538039526450258e-05
-0.00012810966290999204	-0.0001281096682384099
-0.005601280834525824	-0.005601280986268524
-0.004886523354798555	-0.004886523142634602
-0.003846698673442006	-0.003846698571917141
-0.0022307869512587786	-0.0022307869928543758
-0.0041692000813782215	-0.004169200152977828
-0.005667851772159338	-0.0056678517235541955
-0.0055259820073843	-0.005525981779592766
-0.002723389770835638	-0.002723389763889925
-0.0053537869825959206	-0.005353786891354071
9.920201409840956e-05	9.920201363468003e-05
0.00010550753358984366	0.00010550753265584663
-0.005458843428641558	-0.005458843287514539
3.861144432448782e-05	3.861144599157701e-05
-0.004682186525315046	-0.0046821864057014955
5.314883674145676e-05	5.31488368566289e-05
-1.4444210137298796e-05	-1.4444210524730542e-05
-0.003948018420487642	-0.00394801849082051
-0.00585921760648489	-0.005859217519858129
-0.00013492564903572202	-0.00013492564533768863
0.0001307075726799667	0.00013070757312659822
-0.005740825552493334	-0.005740825427757477
-0.00472395122051239	-0.004723951409654887
6.552597915288061e-05	6.552598026275016e-05
-0.00010145369014935568	-0.00010145368996754238
1.653374624766002e-06	1.6533745796715562e-06
-0.00019066677486989647	-0.0001906667739989938
-0.0009632327128201723	-0.0009632327377705453
-0.0050935298204422	-0.005093529619368388
-6.526777724502608e-05	-6.526777639932317e-05
-0.004117394797503948	-0.004117394975629214
-0.005345799960196018	-0.005345799814883502
0.00012677960330620408	0.00012677960078507914
-0.00013249748735688627	-0.00013249748674093443
-0.00467805378139019	-0.004678054007294737
2.3934435375849716e-05	2.3934436072805393e-05
-0.005125892348587513	-0.0051258924685977005
0.00014144694432616234	0.00014144694224329314
6.452867819461972e-05	6.452867920483706e-05
-0.004048040136694908	-0.004048040259147167
-0.003501090221107006	-0.003501090142317719
-0.006032498087733984	-0.006032498238940668
-0.00024798736558295786	-0.0002479873619941712
-0.005762574262917042	-0.005762574252735364
-0.00564529187977314	-0.005645291752331647
5.4745069064665586e-05	5.474506882079256e-05
-0.004774720408022404	-0.004774720381927925
-0.0002055914665106684	-0.00020559146207445116
-0.00011206195631530136	-0.00011206195369393023
-0.0011354231974110007	-0.0011354231826954555
-0.00046986251254566014	-0.00046986249806913214
-1.0913568985415623e-05	-1.0913569008071306e-05
-0.0016809101216495037	-0.0016809101186667046
-0.0016878950409591198	-0.0016878949893482044
0.003552141832187772	0.003552141782880237
0.0020622212905436754	0.0020622213979800573
0.001296891481615603	0.0012968914356651883
-0.0005757442559115589	-0.0005757442575814618
0.003158050123602152	0.0031580501213942596
0.002503130352124572	0.0025031302640198144
5.420717570814304e-05	5.420717434593e-05
0.0032436156179755926	0.0032436157208529386
0.001564621925354004	0.0015646219223486402
0.0001516036718385294	0.00015160366515320394
-0.0002859702508430928	-0.0002859702385430553
-0.000819605658762157	-0.000819605646596246
0.0012934351107105613	0.0012934351545247857
-0.00026789659750647843	-0.00026789658555919266
-0.00031641474924981594	-0.00031641475201210807
0.0014916729414835572	0.0014916729900400641
0.00039754819590598345	0.00039754818217112596
0.00013303698506206274	0.00013303699057454535
-0.001739700324833393	-0.0017397003026246019
0.0029917345382273197	0.002991734613834824
0.0017531528137624264	0.0017531528280942837
-1.1192985766683705e-05	-1.1192986033899178e-05
-0.000843016488943249	-0.0008430164715120161
-5.780927313026041e-05	-5.780927449385819e-05
-0.0015582400374114513	-0.0015582400741629714
-0.0009722391841933131	-0.0009722392004046433
0.0008698594756424427	0.0008698594768631617
-1.812165282899514e-05	-1.812165204058969e-05
0.0017424389952793717	0.0017424390026665308
-0.0005674154963344336	-0.0005674154902268384
0.0007244288572110236	0.000724428881492361
0.0022287191823124886	0.002228719196500422
0.00126032461412251	0.00126032466150433
-0.0013139325892552733	-0.0013139326226499378
-7.924236342660151e-06	-7.924235919528614e-06
0.00023662520106881857	0.00023662520540723754
2.2269401597441174e-05	2.226940214099616e-05
-2.8098827897338197e-05	-2.809882848378563e-05
0.0003302029217593372	0.0003302029244989503
0.00313770049251616	0.0031377005400075896
4.996177267457824e-06	4.9961774377522134e-06
0.0012228315463289618	0.0012228315412818867
-0.0013329886132851243	-0.0013329885954313316
-2.1240568457869813e-05	-2.1240568002578663e-05
-0.0009197863982990384	-0.0009197864175772561
0.00028462312184274197	0.0002846231126677282
2.3271045392903034e-06	2.3271045062567265e-06
0.00017849540745373815	0.00017849541315455918
-5.87517861276865e-05	-5.8751787501287325e-05
1.110345601773588e-05	1.1103456399428148e-05
-1.3619383935292717e-05	-1.3619383685620928e-05
-4.1395720472792163e-05	-4.139572048305727e-05
-1.6882235286175273e-05	-1.688223528032814e-05
-5.952157516730949e-05	-5.9521575570068936e-05
0.0008561966242268682	0.0008561966178969578
-3.78469776478596e-05	-3.7846978789990284e-05
0.001039839000441134	0.0010398390334854987
5.649384547723457e-05	5.649384556694123e-05
0.0004314794496167451	0.0004314794418845482
0.0009872948285192251	0.0009872948207860018
0.00136977166403085	0.0013697716159665355
2.688664972083643e-05	2.688664955967422e-05
0.001215643947944045	0.0012156439390584505
0.0012884301831945777	0.001288430181982592
0.0012639999622479081	0.0012639999536033807
0.0013118357164785266	0.0013118356719609525
-3.0385363061213866e-06	-3.0385363161633755e-06
4.0284328861162066e-05	4.028433029115148e-05
0.0010307213524356484	0.0010307213130952629
-9.20021102501778e-06	-9.20021145217037e-06
0.0010023419745266438	0.0010023420122898137
0.000865518522914499	0.0008655185235411997
-5.1378632633714005e-05	-5.137863338732849e-05
-1.623360367375426e-05	-1.623360396444198e-05
0.0012928840005770326	0.0012928840055405509
0.0012995752040296793	0.001299575249404813
0.0012300567468628287	0.0012300567066867005
-2.2730553610017523e-05	-2.2730552786192323e-05
-3.2355295843444765e-05	-3.235529535636406e-05
0.00024915343965403736	0.0002491534353946954
-9.48261731537059e-06	-9.482617372893502e-06
0.00046600319910794497	0.00046600320098117614
-1.8080992958857678e-05	-1.8080993699231264e-05
0.0011612597154453397	0.0011612597138140634
1.1769946013373556e-06	1.1769946207432476e-06
7.762651875964366e-06	7.762651491541297e-06
0.001120563829317689	0.0011205638272310855
-6.583785307157086e-06	-6.583785400338802e-06
1.9999431515316246e-06	1.9999431792776135e-06
0.0012318271910771728	0.0012318272316208737
-9.676028867033892e-07	-9.676029205966592e-07
0.00016576610505580902	0.00016576610238773428
0.0009594711009413004	0.0009594711150947561
0.0012890271609649062	0.001289027215105151
1.4974844816606492e-05	1.4974844624833476e-05
0.0013726305915042758	0.001372630626355167
0.0013848170638084412	0.0013848170882820783
-2.0002544260933064e-05	-2.00025442979094e-05
-2.548794509493746e-05	-2.5487945167451058e-05
-5.7137844123644754e-05	-5.713784231787246e-05
3.5144889807270374e-06	3.51448888377334e-06
-1.89440070244018e-05	-1.894400683511016e-05
0.0010968628339469433	0.0010968628644244904
0.0012464129831641912	0.001246412945699149
-2.1584961359621957e-05	-2.1584960510149436e-05
0.0015825851587578654	0.0015825852043028477
-0.0014104873407632113	-0.0014104873121950944
1.103066279029008e-05	1.1030662544671879e-05
-0.002390930661931634	-0.0023909306830084466
-0.0012904169270768762	-0.001290416915988683
0.0016275225207209587	0.0016275225269731686
0.00016545466496609151	0.00016545467169397767
-0.0015120527241379023	-0.0015120527372308444
0.00015984734636731446	0.00015984734694128412
7.360195741057396e-05	7.360195570875527e-05
0.0012331301113590598	0.001233130135794332
-0.0020257593132555485	-0.0020257593339350175
-0.0027005334850400686	-0.0027005333809248635
0.0008068053284659982	0.0008068053494589251
6.914359255461022e-05	6.914359533704248e-05
0.0008822786621749401	0.0008822786651064005
-0.0005185773479752243	-0.0005185773593429605
0.0008057706872932613	0.0008057707003761137
0.0013732707593590021	0.001373270738867941
0.0005764952511526644	0.0005764952749859253
-0.001224165316671133	-0.001224165272486398
-0.0023364184889942408	-0.0023364184053429856
0.0008801504736766219	0.0008801504500035887
-0.0024615435395389795	-0.0024615434913643174
0.0012079611187800765	0.0012079611123911196
0.0002593545359559357	0.0002593545363252277
2.7033429432776757e-05	2.7033429316819505e-05
-0.0007679749396629632	-0.000767974915343474
-0.0013999277725815773	-0.001399927823534865
0.001450390787795186	0.001450390759606767
-0.0005469520692713559	-0.0005469520527286775
4.838780660065822e-05	4.83878054544282e-05
0.0013747330522164702	0.0013747330604717335
0.0011757853208109736	0.0011757853588263494
-0.0022093306761235	-0.0022093307841706262
-0.0009035017574205995	-0.0009035017704640473
-5.589172928921471e-07	-5.589173109752487e-07
2.2999869543127716e-05	2.2999869159557976e-05
0.0016336378175765276	0.0016336378452072931
-0.00014852616004645824	-0.00014852615768824965
-0.0005442131077870727	-0.0005442131235734172
0.0014263791963458061	0.0014263791906945185
-0.0028397338464856148	-0.00283973377712223
0.00027629194664768875	0.00027629195192844835
7.593148620799184e-05	7.593148440378152e-05
-0.0017958420794457197	-0.0017958420445676733
-0.0009710350423119962	-0.0009710350429161309
-0.002553947502747178	-0.00255394749870781
3.9257454773178324e-05	3.925745461883618e-05
0.0005253114504739642	0.0005253114694708891
0.00011196708510397002	0.0001119670824800943
0.00046388283954001963	0.00046388284286863116
-0.0024693261366337538	-0.0024693260586662012
3.104723145952448e-05	3.104723272827596e-05
-0.0008905602153390646	-0.0008905602165235843
-9.84047437668778e-05	-9.840474669712311e-05
-1.6075518942670897e-05	-1.607551977549423e-05
0.001296522794291377	0.0012965228101204764
0.0014071899931877851	0.0014071900493714399
-0.00042400360689498484	-0.0004240036189399425
0.0007915273890830576	0.000791527414062834
0.0017202181043103337	0.0017202181353153463
0.0009230163414031267	0.0009230163532165101
-0.0013912372523918748	-0.0013912371991493934
-0.00100263103377074	-0.0010026310719185782
0.00196377863176167	0.0019637786901615644
-0.000882164400536567	-0.000882164403277561
-0.00145072175655514	-0.0014507217552397569
0.00027626624796539545	0.0002762662581640598
-0.0014857366913929582	-0.0014857367101904486
0.0013887399109080434	0.0013887398747946783
-0.001926525728777051	-0.0019265257054277576
-5.7668763474794105e-05	-5.766876454721278e-05
0.0019544537644833326	0.0019544537700518353
0.0018773472402244806	0.0018773472554524295
-1.2129542028560536e-06	-1.2129541989257917e-06
-0.0028621924575418234	-0.0028621925463254523
0.00018659701163414866	0.0001865970147872739
0.0002668506349436939	0.0002668506416669203
-0.0019051922718062997	-0.0019051923250735779
0.0006100631435401738	0.0006100631589078842
-0.0009814458899199963	-0.0009814458669192537
-0.0016403405461460352	-0.0016403405059714346
-0.001067382749170065	-0.0010673827862587957
0.001920916372910142	0.0019209163434914332
1.7559204934514128e-05	1.7559204771928444e-05
0.0020947835873812437	0.0020947836220150625
0.0003608473052736372	0.00036084729571127965
-0.001737405895255506	-0.0017374058622300827
4.8106714530149475e-05	4.810671504997785e-05
-0.002324135974049568	-0.002324136021766517
0.0005426603020168841	0.0005426602883213202
-0.0004726201295852661	-0.00047262012155336637
0.0016431333497166634	0.0016431333532592014
-0.00034646401763893664	-0.0003464640061084031
-0.0003881404409185052	-0.0003881404438633792
0.00488891638815403	0.0048889164876656024
2.854817284969613e-05	2.8548172996541468e-05
0.0017233883263543248	0.0017233883327975005
0.004000881686806679	0.004000881839474277
-0.0007938266498968005	-0.0007938266416081447
-0.0006042841705493629	-0.0006042841817331206
-0.0001344114716630429	-0.00013441147516461222
0.001624037162400782	0.0016240372023057772
-0.001122795743867755	-0.0011227957128267612
0.0026841377839446068	0.0026841376698882994
0.004664961714297533	0.004664961546009309
4.703038212028332e-05	4.703038063758839e-05
0.0031208391301333904	0.003120839108786388
0.003412968013435602	0.0034129679055969996
-8.815301953291055e-06	-8.815301524022545e-06
-0.002449994208291173	-0.0024499942330271866
0.0036793872714042664	0.003679387214401608
-0.001463159453123808	-0.0014631594047282309
1.4144837223284412e-05	1.414483706537539e-05
7.400823960779235e-05	7.400823791128043e-05
-0.002348382491618395	-0.002348382465906638
0.001103908522054553	0.0011039085469145718
-1.0850373655557632e-05	-1.085037370362445e-05
-5.082251664134674e-05	-5.082251632900844e-05
3.3818764677562285e-07	3.381876355999981e-07
0.004492331296205521	0.004492331335649658
0.0031209371518343687	0.0031209370871745187
0.0031048848759382963	0.003104884959017049
-0.00013554710312746465	-0.0001355470991977478
-7.452951103914529e-05	-7.452951084921713e-05
-0.002140528056770563	-0.002140527989002544
-0.0024470891803503036	-0.0024470890654160046
0.00025594906765036285	0.0002559490649678717
0.004453236237168312	0.0044532362301674365
-4.033004734083079e-05	-4.0330046702339196e-05
-1.2861265531682875e-05	-1.2861265409630047e-05
0.0021462265867739916	0.0021462265078303813
-0.0006769970641471446	-0.000676997073280322
7.781934982631356e-05	7.781935343576135e-05
-0.0004382568586152047	-0.0004382568500315495
-2.944713287433842e-06	-2.9447131838150253e-06
0.0005162691813893616	0.0005162691748535823
4.9634163588052616e-05	4.963416461386633e-05
0.001123446854762733	0.00112344679827383
-0.0008495775400660932	-0.000849577529423012
-0.0005548575427383184	-0.000554857531717824
-0.00036714033922180533	-0.0003671403528488062
-0.00043814501259475946	-0.00043814501262091595
-0.0006838890840299428	-0.0006838890679767805
-0.0008075166260823607	-0.0008075166310289524
0.00023963399871718138	0.00023963399866908257
0.0006059586303308606	0.0006059586510768974
9.320346725871786e-05	9.320346945796375e-05
3.5785691579803824e-05	3.578569238573337e-05
0.0002841537061613053	0.0002841537113664043
5.770823554485105e-05	5.770823525688561e-05
4.2419480450917035e-05	4.241947895350262e-05
0.0006362679996527731	0.0006362680236422021
0.0012559813912957907	0.001255981426569283
-0.000715661677531898	-0.0007156616501449672
0.000273205223493278	0.00027320522546300026
-0.0008698913152329624	-0.0008698913218854736
-9.283218787459191e-06	-9.283218542421953e-06
0.0006812366773374379	0.0006812366853446438
4.81741335534025e-05	4.817413296311493e-05
1.5929979326756438e-06	1.5929979634447983e-06
-0.00022915026056580245	-0.0002291502666801469
0.00037275790236890316	0.00037275790786478284
0.0002912703203037381	0.000291270308356223
0.0011879304656758904	0.0011879304602475714
8.127353066811338e-05	8.127353158816345e-05
5.4180538427317515e-05	5.418053784655552e-05
-1.3398616829363164e-06	-1.3398616819492966e-06
-1.4913235645508394e-05	-1.4913236073371339e-05
-3.838009433820844e-05	-3.838009441137806e-05
4.291329241823405e-05	4.291329073936386e-05
6.62236416246742e-05	6.622364525765184e-05
0.0013196428772062063	0.001319642855035184
-0.0008796668844297528	-0.0008796669041328767
-0.0008291566628031433	-0.0008291566373977422
0.0010736454278230667	0.001073645388046106
1.0256679161102511e-05	1.0256678946964657e-05
0.0002106971514876932	0.0002106971522373103
0.001142606372013688	0.00114260636982348
0.0011845426633954048	0.0011845426622169627
4.2705112718977034e-05	4.270511430695181e-05
0.0001524672843515873	0.00015246728489150545
0.0003125198418274522	0.00031251984821880344
-7.192559132818133e-05	-7.192559254812018e-05
0.0009157502208836377	0.0009157501953159312
0.0011528992326930165	0.0011528992494984243
-2.750080057012383e-05	-2.7500801179977956e-05
-8.270817488664761e-05	-8.270817485622738e-05
0.001670969882979989	0.0016709699194202017
-0.00010867663513636217	-0.00010867663410315257
-0.00023401735234074295	-0.00023401735873596776
-0.00014714155986439437	-0.00014714155325607528
0.001133836223743856	0.0011338362104333065
0.0005455989157781005	0.0005455989221767016
0.001034210086800158	0.0010342101363661365
0.00028187670977786183	0.0002818767124322235
0.0016933227889239788	0.001693322808103376
-0.00018902510055340827	-0.00018902510075376669
0.0007539051584899426	0.0007539051436487005
0.000737377442419529	0.0007373774375542423
0.0019291589269414544	0.0019291589014188513
-0.00014858080248814076	-0.00014858080338871012
0.00043355539673939347	0.000433555410536249
0.0007690510828979313	0.0007690510912321651
-0.0003647544945124537	-0.00036475449118319846
0.0007123513496480882	0.0007123513778185257
0.0018492754315957427	0.001849275439855058
0.0017395124305039644	0.0017395124681689504
-1.1230805284867529e-05	-1.1230805297892646e-05
-0.00016316406254190952	-0.0001631640598623374
-0.00013114781177137047	-0.0001311478080554107
0.0015970352105796337	0.0015970352465141018
0.0013642674311995506	0.001364267477039052
0.0012750960886478424	0.0012750960482156208
-0.00036896212259307504	-0.0003689621112616807
0.0008269035606645048	0.0008269035615720128
-6.92547473590821e-05	-6.925474593113652e-05
-3.953374834964052e-05	-3.953374757611668e-05
0.0013218141393736005	0.0013218141398093715
0.0004166645812802017	0.00041666459020032695
0.0016459994949400425	0.0016459994385921099
0.0005563253653235734	0.0005563253879500601
-5.3009032853879035e-05	-5.300903427827705e-05
-0.00011724275100277737	-0.00011724275051942402
0.001781937899067998	0.0017819379141569378
0.0007100506336428225	0.0007100506057321401
0.0012305635027587414	0.0012305635389506168
-0.007289115339517593	-0.007289115330608403
0.00013329791545402259	0.00013329791417325407
-0.00523549085482955	-0.005235490690816224
-0.006461070850491524	-0.0064610708696374594
4.8942514695227146e-05	4.8942514117938306e-05
-0.008134400472044945	-0.008134400541441244
0.0005459577077999711	0.0005459576859060885
0.0005642604664899409	0.000564260443522655
0.0008087288006208837	0.0008087287747792341
-0.0040397499687969685	-0.004039750169563164
0.0007027919054962695	0.0007027918949331017
4.7267636546166614e-05	4.726763744143052e-05
-0.004157095681875944	-0.0041570956154857956
-0.0022892726119607687	-0.002289272660907107
3.56672826455906e-05	3.566728233895278e-05
0.0005778111517429352	0.0005778111342712207
-0.007053093984723091	-0.007053093908032202
-0.005589398555457592	-0.0055893986536287455
2.1261565052554943e-05	2.1261565553024085e-05
-0.0045499955303967	-0.004549995744420552
0.0007465645903721452	0.0007465645929711107
4.942292071064003e-05	4.942292226908197e-05
-0.0021248625125736	-0.0021248624271291705
-0.007230919320136309	-0.007230919552408515
6.185301026562229e-05	6.185300723469703e-05
0.00014817318879067898	0.0001481731861245472
0.00016802387835923582	0.00016802388262859952
9.597580356057733e-05	9.597580281695707e-05
-0.0049944352358579636	-0.004994435144811726
2.127507650584448e-05	2.1275077050082293e-05
0.0005975716048851609	0.0005975716154538842
-0.007084985263645649	-0.007084985171658269
-0.0073186964727938175	-0.007318696399939767
2.770639730442781e-05	2.7706397369209432e-05
0.00019652834453154355	0.00019652834561811427
0.0006841754075139761	0.0006841754025979952
-0.0008163832244463265	-0.0008163832148779578
0.0006383333820849657	0.0006383333883970848
-0.0050217690877616405	-0.0050217689922657845
4.6222830860642716e-05	4.622283254887674e-05
-0.006475184578448534	-0.006475184617428459
-0.008243335410952568	-0.008243335665529572
0.0006065039779059589	0.0006065039859496651
0.00012113396951463073	0.00012113397306147456
-0.007937802001833916	-0.007937801728200253
0.00011225385242141783	0.00011225385515287613
0.00033090307260863483	0.00033090307978118775
-3.123738497379236e-05	-3.123738407771687e-05
-3.767959242395591e-06	-3.767959202953536e-06
-8.90723526936199e-07	-8.907235531948186e-07
0.0002123227168340236	0.00021232272322315194
-2.3227668862091377e-05	-2.322766957641349e-05
0.0002750720304902643	0.0002750720422323597
-1.1850261216750368e-05	-1.1850261022374252e-05
0.0003685168921947479	0.0003685169017405785
-9.421456525160465e-06	-9.42145644400922e-06
0.00016092169971670955	0.000160921694953534
0.00019210012396797538	0.0001921001212003998
0.0004193267959635705	0.00041932679153596815
0.0003924613702110946	0.0003924613835982153
0.00021363052655942738	0.00021363052912844792
-1.684591370576527e-05	-1.684591406331804e-05
-2.40760637097992e-05	-2.4076064520880122e-05
2.1509010821318952e-06	2.1509011290149177e-06
-9.79024207481416e-06	-9.790241885875875e-06
-2.0673012841143645e-05	-2.067301313049592e-05
0.00034611759474501014	0.00034611759515876565
-2.0310806576162577e-05	-2.0310805814873694e-05
0.0003158847976010293	0.0003158848097168282
0.0002864477864932269	0.00028644777699757214
0.0004423523205332458	0.00044235231199864716
-2.9854643798898906e-05	-2.9854643938713898e-05
0.0004364563792478293	0.0004364563826557465
0.00043479824671521783	0.0004347982553542269
0.0004084192623849958	0.0004084192704486972
-4.60148567071883e-06	-4.601485654907871e-06
-1.0265115633956157e-05	-1.0265115680128063e-05
-1.1842209460155573e-05	-1.1842209745844355e-05
-1.5070437257236335e-05	-1.5070437032560645e-05
-5.260483703750651e-06	-5.260483695128791e-06
-2.959248831757577e-06	-2.959248899177998e-06
0.00012370086915325373	0.00012370087164475672
8.164751648109814e-07	8.164751596434928e-07
0.00028687340090982616	0.00028687340856107515
0.0002501736453268677	0.0002501736406559742
0.00040638106293044984	0.0004063810571079227
-2.1811962142237462e-05	-2.1811962154550777e-05
-1.3579553979070624e-06	-1.3579554018311465e-06
-9.476605669078708e-07	-9.476605469381846e-07
-2.2870568500366062e-05	-2.2870569134039128e-05
0.00031756164389662445	0.0003175616556249868
0.0002658163430169225	0.00026581633285846837
-2.431520442769397e-05	-2.431520492872127e-05
0.00045393878826871514	0.00045393878226450385
-5.3754197324451525e-06	-5.375419812206878e-06
-1.5085101949807722e-05	-1.5085102307733185e-05
0.00032066291896626353	0.00032066292320151907
0.0003626561083365232	0.0003626561086485901
-1.300885014643427e-05	-1.3008850191403945e-05
-7.463261863449588e-05	-7.463262198756785e-05
0.0003446622285991907	0.00034466223183509
-8.684756903676316e-05	-8.684757017857302e-05
-6.36763870716095e-05	-6.367638350163662e-05
-3.0496019007841824e-06	-3.049601840322013e-06
-7.158733205869794e-05	-7.158733252972983e-05
-0.00012194260489195585	-0.0001219426069236017
-7.742420712020248e-05	-7.742420408382728e-05
0.0001960943336598575	0.0001960943387549389
-0.00011712443665601313	-0.00011712443919515371
-0.00010386720532551408	-0.00010386720293324353
-1.9642722691060044e-05	-1.9642722423684736e-05
-8.048512245295569e-05	-8.048512291771486e-05
0.0003395909152459353	0.0003395909043218307
-4.349865412223153e-05	-4.349865396701117e-05
0.00034135545138269663	0.00034135544226701365
-3.9647395169595256e-05	-3.9647394492671035e-05
0.00013326721091289073	0.00013326721117005988
0.00041197281097993255	0.0004119728110798904
-0.00010373177065048367	-0.00010373177183291534
-6.512885738629848e-05	-6.512885565740356e-05
0.00034800494904629886	0.00034800494392168204
0.0003520225000102073	0.00035202250429793226
4.325718691688962e-05	4.325718821282646e-05
-0.00013566954294219613	-0.000135669546739669
-2.0724255591630936e-05	-2.0724255955334967e-05
0.00039493440999649465	0.0003949344232065057
0.0003949799865949899	0.00039497999016641745
-0.00012054480612277985	-0.00012054480608274586
-6.738738738931715e-05	-6.73873855618927e-05
7.818495942046866e-05	7.818495812042737e-05
-8.84512992342934e-05	-8.845129858996758e-05
-4.56218549516052e-05	-4.562185594350878e-05
5.6607972510391846e-05	5.66079711973745e-05
-2.2994405298959464e-05	-2.299440609281501e-05
0.0001678402186371386	0.0001678402161846983
-2.795082218653988e-05	-2.7950821915071524e-05
0.00015846313908696175	0.0001584631347865696
-6.144473445601761e-05	-6.144473507562453e-05
-0.00014078871754463762	-0.00014078871065154326
-9.757627594808582e-06	-9.757627229717912e-06
3.487907815724611e-05	3.4879077894849895e-05
0.00030226176022551954	0.0003022617619591311
-4.360647653811611e-05	-4.360647675436193e-05
2.7792168111773208e-05	2.779216872529981e-05
0.00032155931694433093	0.0003215593269905955
-3.433648817008361e-05	-3.4336488453837366e-05
-1.4912380720488727e-05	-1.491238085791424e-05
-0.00010327015479560941	-0.00010327015698263473
-7.846674270695075e-05	-7.846674633580656e-05
0.0002652677067089826	0.00026526770754412915
2.203702024416998e-05	2.2037019728943708e-05
-9.645432874094695e-05	-9.645432596160476e-05
0.0035268091596663	0.0035268091184961045
0.001157898223027587	0.001157898216556817
-0.00012667950068134815	-0.00012667950070019667
0.0005379082867875695	0.0005379082733205725
0.005986242555081844	0.005986242422372963
0.002830345183610916	0.0028303452382820215
0.00046802437282167375	0.0004680243797396686
-0.00011822491069324315	-0.00011822491175888132
0.003586230333894491	0.0035862303553875897
0.003583904355764389	0.0035839044452218496
0.005948964040726423	0.005948963838397326
0.002971555572003126	0.0029715556252503535
-7.825143256923184e-05	-7.82514307826391e-05
0.001311528030782938	0.0013115280087291634
0.0030528614297509193	0.00305286147829039
-1.907764635689091e-05	-1.9077645539792154e-05
0.0029546176083385944	0.0029546175671243953
0.0024516936391592026	0.002451693646549759
0.0018365067662671208	0.0018365067860364665
0.00018464765162207186	0.00018464765786713332
0.0014202671591192484	0.0014202671768172308
-3.585937520256266e-05	-3.58593759207182e-05
0.0020088492892682552	0.00200884933473937
0.0033955485559999943	0.0033955485916525923
0.003350752405822277	0.003350752337681671
2.957768265332561e-05	2.9577682632839552e-05
0.00317200506106019	0.0031720051715711964
0.002335436875000596	0.002335436785844588
0.0023004524409770966	0.0023004523877903295
-4.344466287875548e-05	-4.344466358216712e-05
0.0035619360860437155	0.0035619360547338775
0.0027052490040659904	0.0027052490658918855
0.002161685610190034	0.0021616855894631784
0.0033727711997926235	0.003372771090567252
-5.701677582692355e-05	-5.7016777436651755e-05
0.006336019840091467	0.006336019889424663
0.006814482621848583	0.0068144826176208305
-5.8615845773601905e-05	-5.861584565777459e-05
-5.939139373367652e-05	-5.939139354692056e-05
-0.00012440717546269298	-0.00012440717141014063
-8.476757648168132e-05	-8.476757967938412e-05
0.005667970050126314	0.005667969996614511
-6.562792259501293e-05	-6.562792557182556e-05
-5.955757660558447e-05	-5.955757600333627e-05
0.003227595705538988	0.003227595708978798
-2.68023504759185e-05	-2.680235091392758e-05
0.0036647941451519728	0.0036647942296746225
-8.744180377107114e-05	-8.744180264229518e-05
0.00015261587395798415	0.0001526158703872808
-0.004292501136660576	-0.004292500919132267
-0.003446052549406886	-0.0034460525610983672
-0.00030408965540118515	-0.0003040896627635659
4.8842055548448116e-05	4.884205474429293e-05
-0.0011565441964194179	-0.0011565442514287828
0.00014917764929123223	0.0001491776518615427
-0.0005511644994840026	-0.0005511644933426275
8.599974535172805e-06	8.599974754299953e-06
-0.000676159281283617	-0.0006761592587401841
0.00031859989394433796	0.0003185998984548489
-9.231974399881437e-05	-9.231974679437438e-05
0.0006491533713415265	0.0006491533752459614
4.1341769247082993e-05	4.134176802155239e-05
-0.004179670475423336	-0.00417967037650509
0.0005631840322166681	0.0005631840425697304
-0.004162501078099012	-0.004162501208239221
0.000368942302884534	0.0003689423038717446
0.0004015062877442688	0.00040150627938014525
-0.004770973697304726	-0.004770973714733416
-0.004215613007545471	-0.004215613108346905
-0.0010304489405825734	-0.0010304489150444556
0.0002168437058571726	0.00021684369895798352
-0.005328723229467869	-0.0053287234424271674
-0.002470549428835511	-0.0024705493673278798
0.0007477189647033811	0.0007477189937460822
-0.0037989714182913303	-0.0037989713249809995
7.12500186637044e-05	7.125001835501033e-05
-3.412063597352244e-05	-3.4120635146551685e-05
-0.0007059259223751724	-0.0007059259338539111
0.00017156566900666803	0.0001715656695765594
-0.0005373109597712755	-0.000537310961193043
-0.001960922498255968	-0.001960922542814325
2.8909027605550364e-05	2.8909027222243676e-05
0.00046069081872701645	0.0004606908131415906
-0.00024282032973133028	-0.00024282033221329567
-0.00037736634840257466	-0.00037736633942361716
-0.0016626290744170547	-0.0016626290507688539
0.00010388396185589954	0.0001038839584850692
-0.0009626070386730134	-0.0009626070325514367
-0.00033233207068406045	-0.0003323320840972923
0.0007702320581302047	0.0007702320596719744
-0.005293667782098055	-0.0052936676098117915
0.000354524003341794	0.00035452399819223274
-8.935158257372677e-05	-8.935158464350926e-05
0.0006772394408471882	0.0006772394376052183
-0.0003242340753786266	-0.0003242340741140186
-0.003911082167178392	-0.003911082009128492
-0.0007256607641465962	-0.0007256607822264809
-0.0006903869798406959	-0.000690386986974971
-0.0002880260581150651	-0.0002880260636862201
0.00042132780072279274	0.00042132781055122985
-4.576648279908113e-06	-4.576648171874381e-06
-0.0026730215176939964	-0.0026730216203930623
-0.0024792556650936604	-0.002479255762819159
-0.003974572755396366	-0.003974572909762564
9.897210111375898e-05	9.897210358564484e-05
-0.0003110150864813477	-0.000311015094441093
0.0014587824698537588	0.0014587824439166303
0.001612724969163537	0.0016127249669102984
-0.000593486416619271	-0.0005934864127016011
-0.003933187108486891	-0.003933186926514541
0.0010075487662106752	0.0010075487953679484
0.002862296998500824	0.002862296981269663
-0.004932779353111982	-0.004932779129641435
-0.00036334243486635387	-0.00036334244443086755
-0.0001786161446943879	-0.0001786161460074442
-0.001023670774884522	-0.0010236708320993364
-0.0059111169539391994	-0.005911116797927531
-0.0012696505291387439	-0.0012696505501459897
-0.006811528000980616	-0.006811528151310423
-0.0012954731937497854	-0.0012954732379827048
-2.1619065591949038e-05	-2.16190659835051e-05
-0.008509918116033077	-0.008509918026553601
-0.0036443942226469517	-0.003644394223593079
-0.003944408614188433	-0.0039444087859441986
-0.0034990119747817516	-0.0034990118831940754
-0.004347195848822594	-0.004347195879923639
0.0004986652638763189	0.000498665285574328
-0.007083835545927286	-0.007083835733607248
-0.0012184218503534794	-0.0012184218391519278
-0.00352323311381042	-0.0035232330542374827
-0.0096315648406744	-0.009631564485318234
-0.006107847206294537	-0.006107847100483839
0.00011536505917320028	0.00011536506249714594
-0.0006525188800878823	-0.0006525188900373436
0.0021288900170475245	0.002128890107727482
-0.003473219694569707	-0.003473219687449767
0.00020293347188271582	0.00020293347765267078
-0.00419257115572691	-0.004192571013824368
-0.0006707558641210198	-0.0006707558364217157
-0.004360110033303499	-0.00436011012376277
0.0025093534495681524	0.0025093533767056252
-0.003651662031188607	-0.0036516620485457047
-0.0038336392026394606	-0.00383363917119795
0.0032705506309866905	0.0032705507226711734
-6.717163341818377e-05	-6.717163243738835e-05
0.003957441542297602	0.0039574413740645145
0.0013270714553073049	0.0013270714281649952
-0.00033610465470701456	-0.00033610466545233987
0.0013690254418179393	0.0013690254349460731
-0.0002529215416871011	-0.00025292154462900723
0.0041414652951061726	0.0041414651188928925
0.001808819710277021	0.0018088197575494914
0.0005285389488562942	0.0005285389510934634
0.0011345415841788054	0.0011345415791626805
0.00047395986621268094	0.0004739598655357751
0.0032452575396746397	0.0032452574805675047
0.0012102983891963959	0.0012102983997974981
-0.00046349596232175827	-0.0004634959592529434
-0.00020044059783685952	-0.00020044060404117274
-0.0004128362925257534	-0.00041283628449118834
0.003701144363731146	0.003701144437074674
0.005235222168266773	0.00523522237351802
0.003408985212445259	0.003408985301900087
-0.00048455788055434823	-0.00048455789472511815
0.0037021476309746504	0.0037021477256762676
-6.676862540189177e-05	-6.676862722113965e-05
0.0026666156481951475	0.0026666155609485083
0.0021608793176710606	0.002160879262499353
0.0034720255061984062	0.0034720256202178516
0.00355179188773036	0.0035517917968090245
0.004731759894639254	0.004731760011509701
0.0013025342486798763	0.0013025343023798414
-0.0003124331415165216	-0.0003124331410303512
0.0012307814322412014	0.0012307814542155706
0.0029121171683073044	0.002912117128896236
-0.00014300392649602145	-0.0001430039330689688
-0.0004418564203660935	-0.0004418564221377067
7.63474017730914e-05	7.634740127141111e-05
-0.00013051829591859132	-0.00013051829663807618
0.0018867955077439547	0.0018867955514803069
0.0012192105641588569	0.0012192105886276966
0.0027714220341295004	0.0027714219626543608
0.003058576723560691	0.003058576653184207
0.0031263025011867285	0.0031263025868004096
0.003483598819002509	0.003483598771807759
0.0005249018431641161	0.0005249018472430199
0.0017161177238449454	0.0017161177307992628
0.0003017204871866852	0.0003017204923813854
0.00295615685172379	0.0029561567927885012
0.00010868818208109587	0.00010868818094855951
0.00044917393825016916	0.00044917393979378444
-0.0002076844684779644	-0.00020768447087034662
0.003492779564112425	0.0034927794864779626
0.0029062950052320957	0.0029062950554433337
-0.00011310506670270115	-0.00011310506990117497
0.0027602477930486202	0.0027602477055764605
0.002962379017844796	0.002962379111669962
0.0003052573592867702	0.00030525736246160524
0.001724324538372457	0.0017243245703654287
-4.44565957877785e-05	-4.445659502850907e-05
-7.509148417739198e-05	-7.509148754456222e-05
0.0006887889467179775	0.0006887889278550054
0.0003549936809577048	0.00035499368723196633
0.0018759650411084294	0.0018759650328269485
0.0006280125817283988	0.0006280125621360339
-0.00012121080362703651	-0.00012121080151172946
0.003218306228518486	0.0032183061783629787
0.0033558851573616266	0.003355885158963224
0.0005058699171058834	0.0005058699188763696
0.0006207008264027536	0.0006207008551914737
0.0006346972077153623	0.0006346972192905016
0.0014227635692805052	0.00142276352870849
6.255367043195292e-05	6.255366761171227e-05
-0.00014263225602917373	-0.0001426322562702462
0.0017056043725460768	0.0017056043804644675
0.003277552081272006	0.0032775520912350174
-8.682926272740588e-05	-8.682926230332708e-05
-1.270541633857647e-05	-1.2705415892854038e-05
0.003049802267923951	0.003049802225036294
-6.556753214681521e-05	-6.556752893726855e-05
0.002386033535003662	0.002386033575443912
-7.791926327627152e-05	-7.791926180873418e-05
0.003418129635974765	0.0034181297416982113
-6.827592005720362e-05	-6.827592038003468e-05
0.00012219800555612892	0.0001221980106364056
0.003337365807965398	0.003337365753094617
0.0005577388219535351	0.0005577388307587319
0.002226106123998761	0.00222610619449706
0.003438068786635995	0.0034380688471249894
-6.67711574351415e-05	-6.677115600089532e-05
0.00047720401198603213	0.0004772040000019503
0.0001337449357379228	0.00013374493679485055
0.000488791149109602	0.0004887911349588148
0.003287330735474825	0.0032873307577682524
9.267745190300047e-05	9.267745014009773e-05
0.003163744928315282	0.0031637449364117997
-0.0001029828199534677	-0.00010298281707707135
0.00041103039984591305	0.00041103039132912427
-0.00010329190990887582	-0.00010329191085204491
-6.467322236858308e-05	-6.467322142267326e-05
0.001291616470552981	0.0012916164610125272
-0.00012587523087859154	-0.00012587523475996102
-6.196410686243325e-05	-6.196410417813352e-05
-6.89698790665716e-05	-6.89698755057388e-05
-2.2113708837423474e-05	-2.211370930855893e-05
-9.070753731066361e-05	-9.070753820050521e-05
-0.00012839236296713352	-0.0001283923625345861
-3.5845907405018806e-05	-3.584590896717953e-05
0.005177552346140146	0.005177552322211886
-0.00010870883852476254	-0.00010870883897859987
-8.09776975074783e-05	-8.097769444154636e-05
0.005105313379317522	0.005105313537610481
-8.682370389578864e-05	-8.682370241216422e-05
-3.0310593501781113e-05	-3.031059369467468e-05
0.0011661755852401257	0.0011661755868540033
0.005499415099620819	0.005499414869380039
0.0052705686539411545	0.005270568655011249
-0.00010489130363566801	-0.00010489130624773897
0.005671882536262274	0.0056718825479422546
-6.21527069597505e-05	-6.215270350720385e-05
-3.6837722291238606e-05	-3.683772093714236e-05
0.0058655450120568275	0.005865545042015451
-4.061208528582938e-05	-4.0612086412401015e-05
0.00028376508271321654	0.00028376507673071825
-4.7079251089598984e-05	-4.707925136577877e-05
0.0013327589258551598	0.0013327588839357086
-3.892273161909543e-05	-3.89227307712712e-05
0.005027645267546177	0.00502764512950187
-0.00014586237375624478	-0.00014586237809202066
-5.815602435177425e-06	-5.815602364464117e-06
0.003605854231864214	0.0036058543167278587
-3.949168240069412e-05	-3.9491682471669596e-05
-0.00011043402628274634	-0.00011043402599091587
0.005523232743144035	0.005523232947324343
-6.777278031222522e-05	-6.777278033196742e-05
0.0004220567352604121	0.00042205673491480466
0.005821120459586382	0.005821120594004328
0.00408952496945858	0.004089525126600129
0.0005250261747278273	0.0005250261693421689
0.00035828238469548523	0.00035828238404979617
0.004700626712292433	0.00470062680898732
0.001472841831855476	0.0014728417990832437
0.0011471440084278584	0.0011471439550102896
0.0020474197808653116	0.002047419728034542
-0.0019553343299776316	-0.001955334362392785
0.0010361557360738516	0.0010361557299838687
0.002452683402225375	0.0024526834647442698
0.0016975403996184468	0.0016975403736782578
-0.00012138953752582893	-0.00012138953780635331
2.9331302357604727e-05	2.9331303236557745e-05
-0.0015747721772640944	-0.0015747721375390978
0.002631874056532979	0.002631874059711079
-0.0016549087595194578	-0.0016549087392805837
0.002648454625159502	0.002648454678245711
0.0026471849996596575	0.002647184895258243
-0.000123562800581567	-0.00012356279943779726
-0.0018322949763387442	-0.0018322949333605713
8.794907625997439e-05	8.794907390972145e-05
0.000169681035913527	0.00016968103403254417
-0.0011870854068547487	-0.0011870853553094074
-0.000835890881717205	-0.000835890864501408
0.0019658051896840334	0.0019658051406792744
-0.00018586002988740802	-0.00018586002674747133
-0.00018455182726029307	-0.00018455183412501185
-4.10094580729492e-05	-4.10094563232188e-05
-0.0010447145905345678	-0.001044714616534003
0.00045090928324498236	0.0004509092720488069
-1.0827638107002713e-05	-1.0827637693613246e-05
-3.7313940993044525e-05	-3.731394147403664e-05
0.00044109567534178495	0.000441095689622692
-0.0001693160884315148	-0.00016931608990881092
0.0006923578912392259	0.0006923578790691253
0.0024157464504241943	0.002415746431420679
-0.00013170983584132046	-0.00013170982872032097
-0.0005913432105444372	-0.00059134319551092
0.0008953753276728094	0.0008953753180013647
-0.000315082841552794	-0.0003150828290176101
0.002167078200727701	0.002167078232945793
-2.2350664949044585e-05	-2.235066582221055e-05
0.0022028342355042696	0.0022028341322634605
0.0024555991403758526	0.002455599141528705
0.00033679266925901175	0.0003367926678098349
-1.706299008219503e-05	-1.7062989407182953e-05
-0.00025114475283771753	-0.00025114476278411313
0.002308027120307088	0.002308027023240806
-0.0017545761074870825	-0.0017545761347450611
-0.0017552684294059873	-0.001755268375948853
-0.0021041366271674633	-0.002104136715159328
3.784758519032039e-05	3.78475833976554e-05
-0.0001650545309530571	-0.00016505453545650328
-0.00013585980923380703	-0.00013585981268913067
0.001428895746357739	0.0014288957128387827
0.0028489206451922655	0.002848920742053896
-0.0018217767355963588	-0.0018217767876932513
0.00221468647941947	0.0022146863635430273
-0.0018402348505333066	-0.0018402348750799708
0.001901246141642332	0.0019012461833590576
0.00220779562368989	0.0022077955434543143
-4.716249009106832e-07	-4.716248929226543e-07
-0.00018507389177102596	-0.00018507388552868804
-9.271212184103206e-05	-9.271212317055266e-05
0.0006300226668827236	0.0006300226567841323
0.0006081947940401733	0.0006081947746937761
-9.494911500951275e-05	-9.494911312331236e-05
-6.285015842877328e-05	-6.285015989259143e-05
-2.9042150345048867e-05	-2.90421498136428e-05
0.00010905350063694641	0.000109053500487995
-7.305864710360765e-05	-7.30586447553536e-05
-6.804650911362842e-05	-6.804650947409832e-05
0.0006163634243421257	0.0006163634482756475
-0.00011023959086742252	-0.00011023959008608268
-9.230495925294235e-05	-9.230496031619088e-05
-4.0293049096362665e-05	-4.0293047455756496e-05
-3.795132215600461e-05	-3.795132193791918e-05
-0.0001050123100867495	-0.00010501230801505871
-7.324865146074444e-05	-7.324865205193565e-05
-0.00011698884918587282	-0.00011698884568920069
-4.8296988097717986e-05	-4.829698815614119e-05
-7.082796219037846e-05	-7.082796335637918e-05
0.0008181073353625834	0.0008181073153841515
-2.206901990575716e-05	-2.2069019007897258e-05
7.251738134073094e-05	7.251738110706763e-05
0.0005125899915583432	0.0005125899841001383
0.0003363239811733365	0.00033632399529651553
-8.162578888004646e-05	-8.162578701476059e-05
0.0006735920906066895	0.0006735921130861515
0.0006861115689389408	0.0006861115446419837
0.00011185499170096591	0.00011185499349854284
-9.932111424859613e-05	-9.932111417995693e-05
0.0007792565156705678	0.0007792565204957721
-0.0001390004763379693	-0.0001390004780831021
0.0007309347274713218	0.0007309347333299988
-0.00015026818437036127	-0.00015026817944237944
-1.092160619009519e-05	-1.0921606243194728e-05
-5.4083706345409155e-05	-5.408370663311419e-05
-2.0064164800714934e-06	-2.0064164170177755e-06
0.00020063400734215975	0.00020063400430831392
-2.9971757612656802e-05	-2.99717579242598e-05
0.0003865558246616274	0.0003865558299984028
-0.00015041293227113783	-0.00015041292571359676
-0.0001092016464099288	-0.0001092016482819177
0.0007648151949979365	0.0007648151820721225
-6.184784433571622e-05	-6.184784686248113e-05
-7.501165964640677e-05	-7.501166034506504e-05
0.0008076410158537328	0.0008076410003051862
-0.00012958642037119716	-0.00012958642610663774
-2.8876367650809698e-05	-2.887636843077402e-05
0.0001337098074145615	0.00013370981456201604
-3.347288293298334e-05	-3.347288428689074e-05
5.073382271802984e-05	5.0733823330080596e-05
-0.0001319810253335163	-0.0001319810272689569
-7.459797780029476e-05	-7.459797679582138e-05
-7.826551154721528e-05	-7.8265509785922e-05
0.00017092228517867625	0.00017092227848234873
0.0017730235122144222	0.0017730235434511386
0.00439829844981432	0.004398298504610949
0.0017305834917351604	0.001730583475652316
-4.071771400049329e-05	-4.071771563565387e-05
-4.7559893573634326e-05	-4.755989527656246e-05
0.004754062741994858	0.004754062560733552
0.0012508728541433811	0.0012508728597751242
0.002855517901480198	0.0028555180067206345
-1.5044899555505253e-05	-1.5044899662391694e-05
0.005051751155406237	0.005051751112629063
0.0047354199923574924	0.004735419777449216
0.0006671174778603017	0.0006671174693030739
0.001846548169851303	0.0018465482012615432
0.0005103482399135828	0.0005103482558566293
0.004972078837454319	0.004972078946958443
0.003637455403804779	0.0036374554716290045
0.0016338996356353164	0.0016338996584155862
-7.712412298133131e-06	-7.71241187529839e-06
-0.00034653954207897186	-0.00034653953359228015
-4.501127841649577e-05	-4.501127892598734e-05
0.0015044419560581446	0.0015044419278341145
-3.209647911717184e-05	-3.209647754364967e-05
0.0036327065899968147	0.0036327065507719245
-6.523469346575439e-05	-6.523469334334784e-05
0.0015098255826160312	0.001509825563877028
0.0044417125172913074	0.004441712330791832
0.004463669843971729	0.004463669679871326
0.006013178266584873	0.006013178072982966
0.00402234960347414	0.004022349598456972
0.004210667219012976	0.004210667030004702
0.0018466480541974306	0.0018466480707461212
0.0022034577559679747	0.002203457776056514
0.00414074445143342	0.0041407445606322585
0.004700755700469017	0.004700755652722603
-8.202000753954053e-05	-8.202000840246634e-05
-4.157560761086643e-05	-4.157560672186532e-05
0.0012766207801178098	0.0012766207471601233
0.004140229430049658	0.0041402292087707945
0.006211982108652592	0.006211981938884707
0.0034529983531683683	0.0034529982951368512
-1.8356133296038024e-05	-1.8356132612909157e-05
-9.180919732898474e-05	-9.180919926575947e-05
-0.00026222781161777675	-0.0002622278188109004
0.00195952202193439	0.0019595220683033144
9.75631337496452e-05	9.756313454551405e-05
0.001846356550231576	0.0018463565023438375
0.0035177222453057766	0.003517722338778718
0.003998484928160906	0.003998484811555413
0.0020954464562237263	0.0020954465693418024
0.003345389850437641	0.003345389782384365
0.0035256941337138414	0.0035256940574129553
-4.7334571718238294e-05	-4.7334570863731054e-05
2.4647591999382712e-05	2.4647591767871867e-05
-5.908290404477157e-06	-5.908290292981993e-06
2.1597845261567272e-05	2.159784526352418e-05
-5.677375884260982e-05	-5.677375968104594e-05
1.5106384125829209e-06	1.5106383665173623e-06
3.847746484098025e-05	3.847746433838197e-05
-9.490150114288554e-05	-9.490150089969896e-05
-0.00010744230530690402	-0.0001074423047695114
-2.2350675862981007e-05	-2.2350675212957992e-05
-8.802511729300022e-06	-8.802511890750706e-06
2.7258045520284213e-05	2.7258046233387994e-05
-8.824264659779146e-05	-8.824264635230713e-05
-3.016209666384384e-05	-3.0162097046957147e-05
4.0008462747209705e-06	4.000846295859412e-06
2.2737999927358032e-08	2.2738000413542437e-08
-4.652757343137637e-05	-4.652757294030965e-05
-1.510626680101268e-05	-1.5106266472744585e-05
-0.00010477775504114106	-0.00010477775397271486
3.847151219815714e-06	3.847151250432719e-06
-4.213606007397175e-05	-4.213605981140365e-05
-6.894080433994532e-05	-6.894080221450958e-05
1.2042365597153548e-05	1.2042365860873516e-05
2.3678887373534963e-05	2.3678887037938242e-05
7.369134436885361e-06	7.369134633237225e-06
-4.698836710304022e-05	-4.698836873297398e-05
-4.876719685853459e-05	-4.876719521489868e-05
4.689905472332612e-05	4.689905649757938e-05
-0.00010101724183186889	-0.00010101724307819883
-3.033776010852307e-05	-3.0337760004886926e-05
8.7405314843636e-06	8.740531909079639e-06
-8.895010068954434e-06	-8.895010127740691e-06
-2.0082465198356658e-05	-2.008246458597722e-05
2.56741295743268e-05	2.5674129723681418e-05
-5.552108268602751e-05	-5.552108134734202e-05
-7.395727152470499e-05	-7.395727045419144e-05
1.5191355487331748e-05	1.5191355334782134e-05
-5.086950113764033e-05	-5.086949942905571e-05
-6.075221608625725e-05	-6.0752216862874484e-05
-0.00011112844367744401	-0.00011112844412436483
-3.9874212234281003e-05	-3.987421214889951e-05
-2.3138776668929495e-05	-2.313877630118251e-05
-1.0716439646785147e-05	-1.0716439394946684e-05
-6.1118567828089e-05	-6.111856709292995e-05
-7.652758358744904e-05	-7.652758529252273e-05
5.490960120368982e-06	5.490959995049865e-06
-7.174991333158687e-05	-7.17499158790506e-05
-6.507128205157642e-07	-6.507128051592063e-07
-4.3385138269513845e-05	-4.338513969562761e-05
-4.375632124720141e-05	-4.375632110098615e-05
-0.00028003318584524095	-0.0002800332002482401
0.003640909446403384	0.003640909439024217
0.007947114296257496	0.007947114728779988
0.006217206362634897	0.006217206401648356
0.00016638776287436485	0.00016638776552449375
0.0002700623881537467	0.00027006239508087194
0.007864664308726788	0.007864664652860932
6.400709389708936e-05	6.400709244818398e-05
0.0045807561837136745	0.004580756061066835
0.0075231571681797504	0.007523157347836283
0.009296082891523838	0.00929608300185647
9.016004332806915e-05	9.016004664351678e-05
-9.039886208483949e-05	-9.039886490745253e-05
0.009178013540804386	0.00917801313175423
-0.00010681564162950963	-0.00010681564131259979
-0.00012444144522305578	-0.00012444144741201877
0.00898393802344799	0.008983937822291734
0.0018766626017168164	0.0018766626009494721
-6.867820775369182e-05	-6.8678206266101e-05
-0.00021579701569862664	-0.00021579701981102564
-8.653728582430631e-05	-8.65372867246917e-05
9.339326061308384e-05	9.339326125864076e-05
8.918526145862415e-05	8.918526213553098e-05
0.0038273942191153765	0.0038273941599827927
0.0001291809749091044	0.00012918097602435043
0.005063031800091267	0.005063031933925729
0.0002210046222899109	0.00022100462154929385
0.004431277047842741	0.004431276824040756
0.008119290694594383	0.008119290618776849
0.008332520723342896	0.008332520869947579
8.572928345529363e-05	8.572928319709848e-05
0.003525635926052928	0.0035256358284033876
0.00011254548735450953	0.00011254548839172546
0.008067761547863483	0.008067761910727389
-0.00026533074560575187	-0.0002653307368023318
-0.00012442345905583352	-0.00012442345726429652
0.007502167951315641	0.00750216773249285
0.006483038887381554	0.006483039114613945
0.008611061610281467	0.008611061516780004
8.576349500799552e-05	8.576349342601193e-05
-0.00014723563799634576	-0.0001472356426839688
-2.2780159270041622e-05	-2.2780159768213845e-05
-0.0001387503434671089	-0.00013875034681213027
-4.3152682337677106e-05	-4.3152680710527174e-05
0.0007853709394112229	0.0007853709221384597
0.009105824865400791	0.009105825084904031
-0.000156780966790393	-0.00015678096847790052
0.006502717267721891	0.006502717160744258
0.006555933505296707	0.006555933306737131
0.0077854059636592865	0.00778540573267392
0.008177107200026512	0.008177107290971668
-4.4088559661759064e-05	-4.4088559242737326e-05
0.0024975978303700686	0.0024975978952369578
-0.00039681250927969813	-0.00039681252268362427
0.0007597970543429255	0.0007597970672950721
-0.0010640084510669112	-0.0010640084037629202
0.000779481721110642	0.0007794817017914731
-0.00027164441416971385	-0.00027164440661499285
-0.0014875393826514482	-0.0014875393506218173
-0.0014503744896501303	-0.0014503745157074866
-0.0005122963921166956	-0.0005122963828649138
0.001807520748116076	0.0018075207376691746
0.0004714519309345633	0.0004714519338563493
0.0015835626982152462	0.0015835626638737075
-4.811471444554627e-05	-4.8114716082226176e-05
7.375133282039315e-05	7.375133120957563e-05
0.00024035328533500433	0.0002403532841676324
0.0002269883843837306	0.00022698837881174357
0.00021051116345915943	0.0002105111586891465
-0.0006467647035606205	-0.0006467647236681976
0.0005906387814320624	0.0005906387801940755
0.0013775170082226396	0.0013775170550268453
0.0016335457330569625	0.0016335457337217805
-9.39929759624647e-06	-9.399297523138719e-06
0.000934482435695827	0.0009344824122456911
0.0009205091628246009	0.0009205091908289365
